{"learner":{"attributes":{"scikit_learn":"{\"_estimator_type\": \"regressor\"}"},"feature_names":[],"feature_types":[],"gradient_booster":{"model":{"gbtree_model_param":{"num_parallel_tree":"1","num_trees":"100"},"iteration_indptr":[0,1,2,3,4,5,6,7,8,9,10,11,12,13,14,15,16,17,18,19,20,21,22,23,24,25,26,27,28,29,30,31,32,33,34,35,36,37,38,39,40,41,42,43,44,45,46,47,48,49,50,51,52,53,54,55,56,57,58,59,60,61,62,63,64,65,66,67,68,69,70,71,72,73,74,75,76,77,78,79,80,81,82,83,84,85,86,87,88,89,90,91,92,93,94,95,96,97,98,99,100],"tree_info":[0,0,0,0,0,0,0,0,0,0,0,0,0,0,0,0,0,0,0,0,0,0,0,0,0,0,0,0,0,0,0,0,0,0,0,0,0,0,0,0,0,0,0,0,0,0,0,0,0,0,0,0,0,0,0,0,0,0,0,0,0,0,0,0,0,0,0,0,0,0,0,0,0,0,0,0,0,0,0,0,0,0,0,0,0,0,0,0,0,0,0,0,0,0,0,0,0,0,0,0],"trees":[{"base_weights":[-8.324445E-7,-2.4547734E0,5.2771235E0,-5.4874024E0,-1.0180722E0,4.1371984E0,9.968459E0,-1.6800988E0,-5.246215E-1,-2.8266996E-1,-4.679875E-2,1.8041112E-1,5.0825876E-1,9.569074E-1,2.5480614E0],"categories":[],"categories_nodes":[],"categories_segments":[],"categories_sizes":[],"default_left":[0,0,0,0,0,0,0,0,0,0,0,0,0,0,0],"id":0,"left_children":[1,3,5,7,9,11,13,-1,-1,-1,-1,-1,-1,-1,-1],"loss_changes":[5.5042145E4,1.262966E4,7.1729023E3,2.4550059E3,1.9576317E3,2.3884004E3,1.3855449E3,0E0,0E0,0E0,0E0,0E0,0E0,0E0,0E0],"parents":[2147483647,0,0,1,1,2,2,3,3,4,4,5,5,6,6],"right_children":[2,4,6,8,10,12,14,-1,-1,-1,-1,-1,-1,-1,-1],"split_conditions":[4.65E1,4.05E1,5.2E1,3.3E1,4.2E1,4.75E1,5.9E1,-1.6800988E0,-5.246215E-1,-2.8266996E-1,-4.679875E-2,1.8041112E-1,5.0825876E-1,9.569074E-1,2.5480614E0],"split_indices":[0,0,0,0,0,0,0,0,0,0,0,0,0,0,0],"split_type":[0,0,0,0,0,0,0,0,0,0,0,0,0,0,0],"sum_hessian":[4.247E3,2.899E3,1.348E3,9.31E2,1.968E3,1.086E3,2.62E2,1.8E1,9.13E2,4.58E2,1.51E3,3.14E2,7.72E2,2.57E2,5E0],"tree_param":{"num_deleted":"0","num_feature":"1","num_nodes":"15","size_leaf_vector":"1"}},{"base_weights":[3.8926795E-4,-2.3889863E0,4.4247427E0,-4.941029E0,-1.0865284E0,3.325009E0,8.532902E0,-8.042089E-1,-4.218567E-1,-2.5446463E-1,-5.9721272E-2,1.5205349E-1,4.4600716E-1,8.217436E-1,2.335723E0],"categories":[],"categories_nodes":[],"categories_segments":[],"categories_sizes":[],"default_left":[0,0,0,0,0,0,0,0,0,0,0,0,0,0,0],"id":1,"left_children":[1,3,5,7,9,11,13,-1,-1,-1,-1,-1,-1,-1,-1],"loss_changes":[4.491806E4,9.16535E3,6.7032715E3,2.054125E3,1.3027217E3,2.4039404E3,1.2765059E3,0E0,0E0,0E0,0E0,0E0,0E0,0E0,0E0],"parents":[2147483647,0,0,1,1,2,2,3,3,4,4,5,5,6,6],"right_children":[2,4,6,8,10,12,14,-1,-1,-1,-1,-1,-1,-1,-1],"split_conditions":[4.6E1,4.05E1,5.15E1,3.6E1,4.2E1,4.75E1,5.9E1,-8.042089E-1,-4.218567E-1,-2.5446463E-1,-5.9721272E-2,1.5205349E-1,4.4600716E-1,8.217436E-1,2.335723E0],"split_indices":[0,0,0,0,0,0,0,0,0,0,0,0,0,0,0],"split_type":[0,0,0,0,0,0,0,0,0,0,0,0,0,0,0],"sum_hessian":[4.247E3,2.758E3,1.489E3,9.31E2,1.827E3,1.176E3,3.13E2,1.74E2,7.57E2,4.58E2,1.369E3,4.55E2,7.21E2,3.08E2,5E0],"tree_param":{"num_deleted":"0","num_feature":"1","num_nodes":"15","size_leaf_vector":"1"}},{"base_weights":[8.722106E-4,-2.1506455E0,3.9847891E0,-4.448242E0,-9.7804666E-1,3.0921528E0,8.137537E0,-1.444743E0,-4.2355147E-1,-1.5888573E-1,-2.7194184E-3,1.3688146E-1,4.1047665E-1,7.797316E-1,2.1410792E0],"categories":[],"categories_nodes":[],"categories_segments":[],"categories_sizes":[],"default_left":[0,0,0,0,0,0,0,0,0,0,0,0,0,0,0],"id":2,"left_children":[1,3,5,7,9,11,13,-1,-1,-1,-1,-1,-1,-1,-1],"loss_changes":[3.6420168E4,7.428834E3,5.4981074E3,1.9212637E3,1.0616425E3,2.137334E3,1.0207207E3,0E0,0E0,0E0,0E0,0E0,0E0,0E0,0E0],"parents":[2147483647,0,0,1,1,2,2,3,3,4,4,5,5,6,6],"right_children":[2,4,6,8,10,12,14,-1,-1,-1,-1,-1,-1,-1,-1],"split_conditions":[4.6E1,4.05E1,5.2E1,3.3E1,4.4E1,4.75E1,5.9E1,-1.444743E0,-4.2355147E-1,-1.5888573E-1,-2.7194184E-3,1.3688146E-1,4.1047665E-1,7.797316E-1,2.1410792E0],"split_indices":[0,0,0,0,0,0,0,0,0,0,0,0,0,0,0],"split_type":[0,0,0,0,0,0,0,0,0,0,0,0,0,0,0],"sum_hessian":[4.247E3,2.758E3,1.489E3,9.31E2,1.827E3,1.227E3,2.62E2,1.8E1,9.13E2,1.112E3,7.15E2,4.55E2,7.72E2,2.57E2,5E0],"tree_param":{"num_deleted":"0","num_feature":"1","num_nodes":"15","size_leaf_vector":"1"}},{"base_weights":[1.1231527E-3,-1.9363171E0,3.5886376E0,-4.4024E0,-1.0468922E0,2.6886532E0,6.950716E0,-1.3078725E0,-4.165019E-1,-2.2629996E-1,-4.6026614E-2,1.23223186E-1,3.6047745E-1,6.532288E-1,1.5450441E0],"categories":[],"categories_nodes":[],"categories_segments":[],"categories_sizes":[],"default_left":[0,0,0,0,0,0,0,0,0,0,0,0,0,0,0],"id":3,"left_children":[1,3,5,7,9,11,13,-1,-1,-1,-1,-1,-1,-1,-1],"loss_changes":[2.9533072E4,6.0469697E3,4.4897812E3,1.4510889E3,1.4464473E3,1.5659805E3,1.0158213E3,0E0,0E0,0E0,0E0,0E0,0E0,0E0,0E0],"parents":[2147483647,0,0,1,1,2,2,3,3,4,4,5,5,6,6],"right_children":[2,4,6,8,10,12,14,-1,-1,-1,-1,-1,-1,-1,-1],"split_conditions":[4.6E1,3.95E1,5.15E1,3.3E1,4.2E1,4.75E1,5.75E1,-1.3078725E0,-4.165019E-1,-2.2629996E-1,-4.6026614E-2,1.23223186E-1,3.6047745E-1,6.532288E-1,1.5450441E0],"split_indices":[0,0,0,0,0,0,0,0,0,0,0,0,0,0,0],"split_type":[0,0,0,0,0,0,0,0,0,0,0,0,0,0,0],"sum_hessian":[4.247E3,2.758E3,1.489E3,7.3E2,2.028E3,1.176E3,3.13E2,1.8E1,7.12E2,6.59E2,1.369E3,4.55E2,7.21E2,3E2,1.3E1],"tree_param":{"num_deleted":"0","num_feature":"1","num_nodes":"15","size_leaf_vector":"1"}},{"base_weights":[1.1723324E-3,-1.7434089E0,3.231574E0,-3.6131754E0,-7.8916067E-1,2.6007338E0,7.264172E0,-6.210503E-1,-3.008762E-1,-1.3099457E-1,2.148575E-3,1.1092798E-1,3.412114E-1,6.888084E-1,1.8339024E0],"categories":[],"categories_nodes":[],"categories_segments":[],"categories_sizes":[],"default_left":[0,0,0,0,0,0,0,0,0,0,0,0,0,0,0],"id":4,"left_children":[1,3,5,7,9,11,13,-1,-1,-1,-1,-1,-1,-1,-1],"loss_changes":[2.394608E4,4.9198145E3,3.7715557E3,1.4444229E3,7.717595E2,1.55729E3,7.1086816E2,0E0,0E0,0E0,0E0,0E0,0E0,0E0,0E0],"parents":[2147483647,0,0,1,1,2,2,3,3,4,4,5,5,6,6],"right_children":[2,4,6,8,10,12,14,-1,-1,-1,-1,-1,-1,-1,-1],"split_conditions":[4.6E1,4.05E1,5.3E1,3.6E1,4.4E1,4.75E1,5.9E1,-6.210503E-1,-3.008762E-1,-1.3099457E-1,2.148575E-3,1.1092798E-1,3.412114E-1,6.888084E-1,1.8339024E0],"split_indices":[0,0,0,0,0,0,0,0,0,0,0,0,0,0,0],"split_type":[0,0,0,0,0,0,0,0,0,0,0,0,0,0,0],"sum_hessian":[4.247E3,2.758E3,1.489E3,9.31E2,1.827E3,1.289E3,2E2,1.74E2,7.57E2,1.112E3,7.15E2,4.55E2,8.34E2,1.95E2,5E0],"tree_param":{"num_deleted":"0","num_feature":"1","num_nodes":"15","size_leaf_vector":"1"}},{"base_weights":[1.5075651E-3,-1.5694491E0,2.9104123E0,-3.5878444E0,-8.414962E-1,2.055435E0,5.367572E0,-1.1251323E0,-3.378596E-1,-1.8545114E-1,-3.5286013E-2,9.985954E-2,2.791422E-1,5.066326E-1,1.2967187E0],"categories":[],"categories_nodes":[],"categories_segments":[],"categories_sizes":[],"default_left":[0,0,0,0,0,0,0,0,0,0,0,0,0,0,0],"id":5,"left_children":[1,3,5,7,9,11,13,-1,-1,-1,-1,-1,-1,-1,-1],"loss_changes":[1.9416922E4,4.0507695E3,3.1191826E3,1.1341963E3,1.00369226E3,8.582593E2,8.1341504E2,0E0,0E0,0E0,0E0,0E0,0E0,0E0,0E0],"parents":[2147483647,0,0,1,1,2,2,3,3,4,4,5,5,6,6],"right_children":[2,4,6,8,10,12,14,-1,-1,-1,-1,-1,-1,-1,-1],"split_conditions":[4.6E1,3.95E1,5.1E1,3.3E1,4.2E1,4.75E1,5.75E1,-1.1251323E0,-3.378596E-1,-1.8545114E-1,-3.5286013E-2,9.985954E-2,2.791422E-1,5.066326E-1,1.2967187E0],"split_indices":[0,0,0,0,0,0,0,0,0,0,0,0,0,0,0],"split_type":[0,0,0,0,0,0,0,0,0,0,0,0,0,0,0],"sum_hessian":[4.247E3,2.758E3,1.489E3,7.3E2,2.028E3,1.106E3,3.83E2,1.8E1,7.12E2,6.59E2,1.369E3,4.55E2,6.51E2,3.7E2,1.3E1],"tree_param":{"num_deleted":"0","num_feature":"1","num_nodes":"15","size_leaf_vector":"1"}},{"base_weights":[1.4743041E-3,-1.3120344E0,2.825176E0,-2.4918492E0,-2.2583002E-1,2.3207684E0,6.357227E0,-5.1760936E-1,-2.1034984E-1,-7.239535E-2,1.5514632E-2,1.0033015E-1,2.7962077E-1,6.10382E-1,2.4338102E0],"categories":[],"categories_nodes":[],"categories_segments":[],"categories_sizes":[],"default_left":[0,0,0,0,0,0,0,0,0,0,0,0,0,0,0],"id":6,"left_children":[1,3,5,7,9,11,13,-1,-1,-1,-1,-1,-1,-1,-1],"loss_changes":[1.57593545E4,3.7158452E3,2.3886152E3,1.4380869E3,2.8685974E2,7.375703E2,6.169336E2,0E0,0E0,0E0,0E0,0E0,0E0,0E0,0E0],"parents":[2147483647,0,0,1,1,2,2,3,3,4,4,5,5,6,6],"right_children":[2,4,6,8,10,12,14,-1,-1,-1,-1,-1,-1,-1,-1],"split_conditions":[4.65E1,4.2E1,5.35E1,3.6E1,4.4E1,4.75E1,6.35E1,-5.1760936E-1,-2.1034984E-1,-7.239535E-2,1.5514632E-2,1.0033015E-1,2.7962077E-1,6.10382E-1,2.4338102E0],"split_indices":[0,0,0,0,0,0,0,0,0,0,0,0,0,0,0],"split_type":[0,0,0,0,0,0,0,0,0,0,0,0,0,0,0],"sum_hessian":[4.247E3,2.899E3,1.348E3,1.389E3,1.51E3,1.181E3,1.67E2,1.74E2,1.215E3,6.54E2,8.56E2,3.14E2,8.67E2,1.66E2,1E0],"tree_param":{"num_deleted":"0","num_feature":"1","num_nodes":"15","size_leaf_vector":"1"}},{"base_weights":[1.9481636E-3,-1.2746971E0,2.3658826E0,-2.9478617E0,-6.712678E-1,1.8861521E0,5.432979E0,-9.6950406E-1,-2.7639288E-1,-1.4593096E-1,-2.911373E-2,8.2506895E-2,2.4633591E-1,5.2289325E-1,2.3121197E0],"categories":[],"categories_nodes":[],"categories_segments":[],"categories_sizes":[],"default_left":[0,0,0,0,0,0,0,0,0,0,0,0,0,0,0],"id":7,"left_children":[1,3,5,7,9,11,13,-1,-1,-1,-1,-1,-1,-1,-1],"loss_changes":[1.2823079E4,2.783609E3,2.1821084E3,8.803955E2,6.0737964E2,7.880469E2,6.045552E2,0E0,0E0,0E0,0E0,0E0,0E0,0E0,0E0],"parents":[2147483647,0,0,1,1,2,2,3,3,4,4,5,5,6,6],"right_children":[2,4,6,8,10,12,14,-1,-1,-1,-1,-1,-1,-1,-1],"split_conditions":[4.6E1,3.95E1,5.3E1,3.3E1,4.2E1,4.75E1,6.35E1,-9.6950406E-1,-2.7639288E-1,-1.4593096E-1,-2.911373E-2,8.2506895E-2,2.4633591E-1,5.2289325E-1,2.3121197E0],"split_indices":[0,0,0,0,0,0,0,0,0,0,0,0,0,0,0],"split_type":[0,0,0,0,0,0,0,0,0,0,0,0,0,0,0],"sum_hessian":[4.247E3,2.758E3,1.489E3,7.3E2,2.028E3,1.289E3,2E2,1.8E1,7.12E2,6.59E2,1.369E3,4.55E2,8.34E2,1.99E2,1E0],"tree_param":{"num_deleted":"0","num_feature":"1","num_nodes":"15","size_leaf_vector":"1"}},{"base_weights":[2.1641618E-3,-1.147742E0,2.1314185E0,-3.4638417E0,-7.853403E-1,1.3572626E0,3.727911E0,-8.776563E-1,-3.1697416E-1,-1.4888075E-1,-2.620448E-2,1.5357529E-1,-7.543525E-2,3.6450195E-1,2.196514E0],"categories":[],"categories_nodes":[],"categories_segments":[],"categories_sizes":[],"default_left":[0,0,0,0,0,0,0,0,0,0,0,0,0,0,0],"id":8,"left_children":[1,3,5,7,9,11,13,-1,-1,-1,-1,-1,-1,-1,-1],"loss_changes":[1.0403432E4,2.31307E3,1.8364829E3,5.549824E2,8.783154E2,3.7994543E2,6.546279E2,0E0,0E0,0E0,0E0,0E0,0E0,0E0,0E0],"parents":[2147483647,0,0,1,1,2,2,3,3,4,4,5,5,6,6],"right_children":[2,4,6,8,10,12,14,-1,-1,-1,-1,-1,-1,-1,-1],"split_conditions":[4.6E1,3.75E1,5E1,3.3E1,4.2E1,4.95E1,6.35E1,-8.776563E-1,-3.1697416E-1,-1.4888075E-1,-2.620448E-2,1.5357529E-1,-7.543525E-2,3.6450195E-1,2.196514E0],"split_indices":[0,0,0,0,0,0,0,0,0,0,0,0,0,0,0],"split_type":[0,0,0,0,0,0,0,0,0,0,0,0,0,0,0],"sum_hessian":[4.247E3,2.758E3,1.489E3,3.72E2,2.386E3,1.004E3,4.85E2,1.8E1,3.54E2,1.017E3,1.369E3,9.26E2,7.8E1,4.84E2,1E0],"tree_param":{"num_deleted":"0","num_feature":"1","num_nodes":"15","size_leaf_vector":"1"}},{"base_weights":[2.2458797E-3,-8.035212E-1,2.5044036E0,-1.8188498E0,-2.9762207E-2,2.0502498E0,4.8359575E0,-3.9425033E-1,-1.5117295E-1,-5.9643626E-2,2.8723288E-2,3.2687727E-1,1.8193921E-1,4.6150127E-1,2.086688E0],"categories":[],"categories_nodes":[],"categories_segments":[],"categories_sizes":[],"default_left":[0,0,0,0,0,0,0,0,0,0,0,0,0,0,0],"id":9,"left_children":[1,3,5,7,9,11,13,-1,-1,-1,-1,-1,-1,-1,-1],"loss_changes":[8.566645E3,2.5249272E3,1.0860293E3,9.006221E2,3.2800134E2,2.3822583E2,4.9874707E2,0E0,0E0,0E0,0E0,0E0,0E0,0E0,0E0],"parents":[2147483647,0,0,1,1,2,2,3,3,4,4,5,5,6,6],"right_children":[2,4,6,8,10,12,14,-1,-1,-1,-1,-1,-1,-1,-1],"split_conditions":[4.75E1,4.2E1,5.35E1,3.6E1,4.4E1,4.8E1,6.35E1,-3.9425033E-1,-1.5117295E-1,-5.9643626E-2,2.8723288E-2,3.2687727E-1,1.8193921E-1,4.6150127E-1,2.086688E0],"split_indices":[0,0,0,0,0,0,0,0,0,0,0,0,0,0,0],"split_type":[0,0,0,0,0,0,0,0,0,0,0,0,0,0,0],"sum_hessian":[4.247E3,3.213E3,1.034E3,1.389E3,1.824E3,8.67E2,1.67E2,1.74E2,1.215E3,6.54E2,1.17E3,1.36E2,7.31E2,1.66E2,1E0],"tree_param":{"num_deleted":"0","num_feature":"1","num_nodes":"15","size_leaf_vector":"1"}},{"base_weights":[2.6047323E-3,-8.7111413E-1,1.8808717E0,-2.1979291E0,-4.2375335E-1,1.5258468E0,4.3675284E0,-7.5716007E-1,-2.0516491E-1,-7.769408E-2,1.18267825E-2,9.78291E-2,2.0571437E-1,4.156274E-1,1.9823536E0],"categories":[],"categories_nodes":[],"categories_segments":[],"categories_sizes":[],"default_left":[0,0,0,0,0,0,0,0,0,0,0,0,0,0,0],"id":10,"left_children":[1,3,5,7,9,11,13,-1,-1,-1,-1,-1,-1,-1,-1],"loss_changes":[6.972934E3,1.7204072E3,1.1842661E3,5.590762E2,4.155061E2,3.4184863E2,4.6615405E2,0E0,0E0,0E0,0E0,0E0,0E0,0E0,0E0],"parents":[2147483647,0,0,1,1,2,2,3,3,4,4,5,5,6,6],"right_children":[2,4,6,8,10,12,14,-1,-1,-1,-1,-1,-1,-1,-1],"split_conditions":[4.65E1,3.95E1,5.35E1,3.3E1,4.4E1,4.85E1,6.35E1,-7.5716007E-1,-2.0516491E-1,-7.769408E-2,1.18267825E-2,9.78291E-2,2.0571437E-1,4.156274E-1,1.9823536E0],"split_indices":[0,0,0,0,0,0,0,0,0,0,0,0,0,0,0],"split_type":[0,0,0,0,0,0,0,0,0,0,0,0,0,0,0],"sum_hessian":[4.247E3,2.899E3,1.348E3,7.3E2,2.169E3,1.181E3,1.67E2,1.8E1,7.12E2,1.313E3,8.56E2,5.83E2,5.98E2,1.66E2,1E0],"tree_param":{"num_deleted":"0","num_feature":"1","num_nodes":"15","size_leaf_vector":"1"}},{"base_weights":[2.738615E-3,-6.546254E-1,2.0440576E0,-1.7930284E0,-1.89603E-1,1.6737688E0,3.9450502E0,-9.3324214E-1,-1.7176522E-1,-6.242272E-2,2.2365604E-2,2.847167E-1,1.4518708E-1,3.7431362E-1,1.8832359E0],"categories":[],"categories_nodes":[],"categories_segments":[],"categories_sizes":[],"default_left":[0,0,0,0,0,0,0,0,0,0,0,0,0,0,0],"id":11,"left_children":[1,3,5,7,9,11,13,-1,-1,-1,-1,-1,-1,-1,-1],"loss_changes":[5.701686E3,1.7010968E3,7.219502E2,5.1361694E2,4.1019464E2,2.2187158E2,4.345088E2,0E0,0E0,0E0,0E0,0E0,0E0,0E0,0E0],"parents":[2147483647,0,0,1,1,2,2,3,3,4,4,5,5,6,6],"right_children":[2,4,6,8,10,12,14,-1,-1,-1,-1,-1,-1,-1,-1],"split_conditions":[4.75E1,4.05E1,5.35E1,3.2E1,4.4E1,4.8E1,6.35E1,-9.3324214E-1,-1.7176522E-1,-6.242272E-2,2.2365604E-2,2.847167E-1,1.4518708E-1,3.7431362E-1,1.8832359E0],"split_indices":[0,0,0,0,0,0,0,0,0,0,0,0,0,0,0],"split_type":[0,0,0,0,0,0,0,0,0,0,0,0,0,0,0],"sum_hessian":[4.247E3,3.213E3,1.034E3,9.31E2,2.282E3,8.67E2,1.67E2,8E0,9.23E2,1.112E3,1.17E3,1.36E2,7.31E2,1.66E2,1E0],"tree_param":{"num_deleted":"0","num_feature":"1","num_nodes":"15","size_leaf_vector":"1"}},{"base_weights":[2.8278537E-3,-7.0977926E-1,1.534746E0,-2.437611E0,-4.5456126E-1,1.0345346E0,2.789094E0,-8.5028726E-1,-2.2813784E-1,-9.4420075E-2,-1.2437756E-2,5.1950973E-2,1.2817712E-1,2.6399016E-1,1.1748238E0],"categories":[],"categories_nodes":[],"categories_segments":[],"categories_sizes":[],"default_left":[0,0,0,0,0,0,0,0,0,0,0,0,0,0,0],"id":12,"left_children":[1,3,5,7,9,11,13,-1,-1,-1,-1,-1,-1,-1,-1],"loss_changes":[4.6384434E3,1.2777157E3,8.4353E2,3.340537E2,4.085868E2,1.2233777E2,4.822544E2,0E0,0E0,0E0,0E0,0E0,0E0,0E0,0E0],"parents":[2147483647,0,0,1,1,2,2,3,3,4,4,5,5,6,6],"right_children":[2,4,6,8,10,12,14,-1,-1,-1,-1,-1,-1,-1,-1],"split_conditions":[4.65E1,3.75E1,5.1E1,3.2E1,4.2E1,4.75E1,5.9E1,-8.5028726E-1,-2.2813784E-1,-9.4420075E-2,-1.2437756E-2,5.1950973E-2,1.2817712E-1,2.6399016E-1,1.1748238E0],"split_indices":[0,0,0,0,0,0,0,0,0,0,0,0,0,0,0],"split_type":[0,0,0,0,0,0,0,0,0,0,0,0,0,0,0],"sum_hessian":[4.247E3,2.899E3,1.348E3,3.72E2,2.527E3,9.65E2,3.83E2,8E0,3.64E2,1.017E3,1.51E3,3.14E2,6.51E2,3.78E2,5E0],"tree_param":{"num_deleted":"0","num_feature":"1","num_nodes":"15","size_leaf_vector":"1"}},{"base_weights":[2.646793E-3,-6.904676E-1,1.2860696E0,-2.1967409E0,-4.5480344E-1,9.4860166E-1,2.8568857E0,-7.7470607E-1,-2.0538652E-1,-8.4987216E-2,-1.6090946E-2,4.3557506E-2,1.2500137E-1,2.7357033E-1,1.730333E0],"categories":[],"categories_nodes":[],"categories_segments":[],"categories_sizes":[],"default_left":[0,0,0,0,0,0,0,0,0,0,0,0,0,0,0],"id":13,"left_children":[1,3,5,7,9,11,13,-1,-1,-1,-1,-1,-1,-1,-1],"loss_changes":[3.779734E3,9.783761E2,7.871389E2,2.7987976E2,2.7701376E2,1.8934412E2,4.130852E2,0E0,0E0,0E0,0E0,0E0,0E0,0E0,0E0],"parents":[2147483647,0,0,1,1,2,2,3,3,4,4,5,5,6,6],"right_children":[2,4,6,8,10,12,14,-1,-1,-1,-1,-1,-1,-1,-1],"split_conditions":[4.6E1,3.75E1,5.2E1,3.2E1,4.2E1,4.75E1,6.35E1,-7.7470607E-1,-2.0538652E-1,-8.4987216E-2,-1.6090946E-2,4.3557506E-2,1.2500137E-1,2.7357033E-1,1.730333E0],"split_indices":[0,0,0,0,0,0,0,0,0,0,0,0,0,0,0],"split_type":[0,0,0,0,0,0,0,0,0,0,0,0,0,0,0],"sum_hessian":[4.247E3,2.758E3,1.489E3,3.72E2,2.386E3,1.227E3,2.62E2,8E0,3.64E2,1.017E3,1.369E3,4.55E2,7.72E2,2.61E2,1E0],"tree_param":{"num_deleted":"0","num_feature":"1","num_nodes":"15","size_leaf_vector":"1"}},{"base_weights":[2.6393286E-3,-6.2181276E-1,1.1589217E0,-1.9796939E0,-4.0936556E-1,6.93057E-1,2.1198993E0,-5.4585654E-1,-1.7879242E-1,-6.1010983E-2,5.998324E-3,8.754494E-2,-1.4559405E-1,1.9544868E-1,7.557052E-1],"categories":[],"categories_nodes":[],"categories_segments":[],"categories_sizes":[],"default_left":[0,0,0,0,0,0,0,0,0,0,0,0,0,0,0],"id":14,"left_children":[1,3,5,7,9,11,13,-1,-1,-1,-1,-1,-1,-1,-1],"loss_changes":[3.067959E3,7.9510046E2,6.655824E2,2.390846E2,2.2493756E2,3.9519516E2,4.2232446E2,0E0,0E0,0E0,0E0,0E0,0E0,0E0,0E0],"parents":[2147483647,0,0,1,1,2,2,3,3,4,4,5,5,6,6],"right_children":[2,4,6,8,10,12,14,-1,-1,-1,-1,-1,-1,-1,-1],"split_conditions":[4.6E1,3.75E1,5E1,3.3E1,4.4E1,4.95E1,5.75E1,-5.4585654E-1,-1.7879242E-1,-6.1010983E-2,5.998324E-3,8.754494E-2,-1.4559405E-1,1.9544868E-1,7.557052E-1],"split_indices":[0,0,0,0,0,0,0,0,0,0,0,0,0,0,0],"split_type":[0,0,0,0,0,0,0,0,0,0,0,0,0,0,0],"sum_hessian":[4.247E3,2.758E3,1.489E3,3.72E2,2.386E3,1.004E3,4.85E2,1.8E1,3.54E2,1.671E3,7.15E2,9.26E2,7.8E1,4.72E2,1.3E1],"tree_param":{"num_deleted":"0","num_feature":"1","num_nodes":"15","size_leaf_vector":"1"}},{"base_weights":[2.4029773E-3,-4.3740767E-1,1.3681508E0,-1.3481642E0,-1.6921106E-1,1.2615962E0,5.454768E0,-4.941438E-1,-1.2505199E-1,-4.5506276E-2,1.5169275E-2,1.03014074E-1,2.0080395E-1,4.3881342E-1,1.6060311E0],"categories":[],"categories_nodes":[],"categories_segments":[],"categories_sizes":[],"default_left":[0,0,0,0,0,0,0,0,0,0,0,0,0,0,0],"id":15,"left_children":[1,3,5,7,9,11,13,-1,-1,-1,-1,-1,-1,-1,-1],"loss_changes":[2.5522466E3,7.848293E2,4.4380725E2,2.5030115E2,2.2792859E2,1.7242749E2,2.2364325E2,0E0,0E0,0E0,0E0,0E0,0E0,0E0,0E0],"parents":[2147483647,0,0,1,1,2,2,3,3,4,4,5,5,6,6],"right_children":[2,4,6,8,10,12,14,-1,-1,-1,-1,-1,-1,-1,-1],"split_conditions":[4.75E1,3.95E1,5.7E1,3.3E1,4.4E1,5.2E1,6.35E1,-4.941438E-1,-1.2505199E-1,-4.5506276E-2,1.5169275E-2,1.03014074E-1,2.0080395E-1,4.3881342E-1,1.6060311E0],"split_indices":[0,0,0,0,0,0,0,0,0,0,0,0,0,0,0],"split_type":[0,0,0,0,0,0,0,0,0,0,0,0,0,0,0],"sum_hessian":[4.247E3,3.213E3,1.034E3,7.3E2,2.483E3,1.009E3,2.5E1,1.8E1,7.12E2,1.313E3,1.17E3,7.72E2,2.37E2,2.4E1,1E0],"tree_param":{"num_deleted":"0","num_feature":"1","num_nodes":"15","size_leaf_vector":"1"}},{"base_weights":[2.5617587E-3,-3.9386964E-1,1.2336032E0,-1.641139E0,-2.3003243E-1,1.2052851E0,1.5257294E0,-6.1339873E-1,-1.5258603E-1,-4.8662335E-2,1.36534665E-2,9.843191E-2,2.346562E-1],"categories":[],"categories_nodes":[],"categories_segments":[],"categories_sizes":[],"default_left":[0,0,0,0,0,0,0,0,0,0,0,0,0],"id":16,"left_children":[1,3,5,7,9,11,-1,-1,-1,-1,-1,-1,-1],"loss_changes":[2.0736099E3,6.5640063E2,3.9263513E2,1.8382837E2,2.6737866E2,2.5844788E2,0E0,0E0,0E0,0E0,0E0,0E0,0E0],"parents":[2147483647,0,0,1,1,2,2,3,3,4,4,5,5],"right_children":[2,4,6,8,10,12,-1,-1,-1,-1,-1,-1,-1],"split_conditions":[4.75E1,3.75E1,6.35E1,3.2E1,4.4E1,5.35E1,1.5257294E0,-6.1339873E-1,-1.5258603E-1,-4.8662335E-2,1.36534665E-2,9.843191E-2,2.346562E-1],"split_indices":[0,0,0,0,0,0,0,0,0,0,0,0,0],"split_type":[0,0,0,0,0,0,0,0,0,0,0,0,0],"sum_hessian":[4.247E3,3.213E3,1.034E3,3.72E2,2.841E3,1.033E3,1E0,8E0,3.64E2,1.671E3,1.17E3,8.67E2,1.66E2],"tree_param":{"num_deleted":"0","num_feature":"1","num_nodes":"13","size_leaf_vector":"1"}},{"base_weights":[2.5558535E-3,-3.5473052E-1,1.1120398E0,-1.000054E0,-9.113167E-2,1.0850796E0,1.4494431E0,-2.0480202E-1,-7.5679E-2,-3.1622812E-2,1.2289352E-2,8.860018E-2,2.11331E-1],"categories":[],"categories_nodes":[],"categories_segments":[],"categories_sizes":[],"default_left":[0,0,0,0,0,0,0,0,0,0,0,0,0],"id":17,"left_children":[1,3,5,7,9,11,-1,-1,-1,-1,-1,-1,-1],"loss_changes":[1.6843167E3,5.466312E2,3.5769165E2,2.3604712E2,1.1002538E2,2.0978503E2,0E0,0E0,0E0,0E0,0E0,0E0,0E0],"parents":[2147483647,0,0,1,1,2,2,3,3,4,4,5,5],"right_children":[2,4,6,8,10,12,-1,-1,-1,-1,-1,-1,-1],"split_conditions":[4.75E1,4.05E1,6.35E1,3.6E1,4.4E1,5.35E1,1.4494431E0,-2.0480202E-1,-7.5679E-2,-3.1622812E-2,1.2289352E-2,8.860018E-2,2.11331E-1],"split_indices":[0,0,0,0,0,0,0,0,0,0,0,0,0],"split_type":[0,0,0,0,0,0,0,0,0,0,0,0,0],"sum_hessian":[4.247E3,3.213E3,1.034E3,9.31E2,2.282E3,1.033E3,1E0,1.74E2,7.57E2,1.112E3,1.17E3,8.67E2,1.66E2],"tree_param":{"num_deleted":"0","num_feature":"1","num_nodes":"13","size_leaf_vector":"1"}},{"base_weights":[2.6415521E-3,-3.8608634E-1,8.3830374E-1,-1.844387E0,-2.9232672E-1,7.665137E-1,4.4618297E0,-5.406698E-1,-1.641362E-1,-5.8713663E-2,-5.488058E-3,4.882675E-2,1.2863362E-1,3.5387263E-1,1.3769711E0],"categories":[],"categories_nodes":[],"categories_segments":[],"categories_sizes":[],"default_left":[0,0,0,0,0,0,0,0,0,0,0,0,0,0,0],"id":18,"left_children":[1,3,5,7,9,11,13,-1,-1,-1,-1,-1,-1,-1,-1],"loss_changes":[1.380266E3,3.9597693E2,3.4749945E2,1.1769238E2,1.9079178E2,1.9087341E2,1.7466833E2,0E0,0E0,0E0,0E0,0E0,0E0,0E0,0E0],"parents":[2147483647,0,0,1,1,2,2,3,3,4,4,5,5,6,6],"right_children":[2,4,6,8,10,12,14,-1,-1,-1,-1,-1,-1,-1,-1],"split_conditions":[4.65E1,3.6E1,5.7E1,3.2E1,4.2E1,5E1,6.35E1,-5.406698E-1,-1.641362E-1,-5.8713663E-2,-5.488058E-3,4.882675E-2,1.2863362E-1,3.5387263E-1,1.3769711E0],"split_indices":[0,0,0,0,0,0,0,0,0,0,0,0,0,0,0],"split_type":[0,0,0,0,0,0,0,0,0,0,0,0,0,0,0],"sum_hessian":[4.247E3,2.899E3,1.348E3,1.74E2,2.725E3,1.323E3,2.5E1,8E0,1.66E2,1.215E3,1.51E3,8.63E2,4.6E2,2.4E1,1E0],"tree_param":{"num_deleted":"0","num_feature":"1","num_nodes":"15","size_leaf_vector":"1"}},{"base_weights":[2.6450562E-3,-2.8952378E-1,9.0991855E-1,-1.2275563E0,-1.6630927E-1,8.854963E-1,1.3081226E0,-4.926102E-1,-1.1329962E-1,-4.67525E-2,1.8024685E-4,1.8898924E-1,7.3127836E-2],"categories":[],"categories_nodes":[],"categories_segments":[],"categories_sizes":[],"default_left":[0,0,0,0,0,0,0,0,0,0,0,0,0],"id":19,"left_children":[1,3,5,7,9,11,-1,-1,-1,-1,-1,-1,-1],"loss_changes":[1.1263108E3,3.712675E2,2.9607025E2,1.24869995E2,1.4391376E2,1.587804E2,0E0,0E0,0E0,0E0,0E0,0E0,0E0],"parents":[2147483647,0,0,1,1,2,2,3,3,4,4,5,5],"right_children":[2,4,6,8,10,12,-1,-1,-1,-1,-1,-1,-1],"split_conditions":[4.75E1,3.75E1,6.35E1,3.2E1,4.2E1,4.8E1,1.3081226E0,-4.926102E-1,-1.1329962E-1,-4.67525E-2,1.8024685E-4,1.8898924E-1,7.3127836E-2],"split_indices":[0,0,0,0,0,0,0,0,0,0,0,0,0],"split_type":[0,0,0,0,0,0,0,0,0,0,0,0,0],"sum_hessian":[4.247E3,3.213E3,1.034E3,3.72E2,2.841E3,1.033E3,1E0,8E0,3.64E2,1.017E3,1.824E3,1.36E2,8.97E2],"tree_param":{"num_deleted":"0","num_feature":"1","num_nodes":"13","size_leaf_vector":"1"}},{"base_weights":[2.5972377E-3,-2.2129709E-1,1.0206407E0,-7.422651E-1,-3.0950904E-2,9.894856E-1,1.2427167E0,-2.6224023E-1,-6.572172E-2,3.5914597E-3,-1.2377919E-1,9.1597356E-2,3.1288043E-1],"categories":[],"categories_nodes":[],"categories_segments":[],"categories_sizes":[],"default_left":[0,0,0,0,0,0,0,0,0,0,0,0,0],"id":20,"left_children":[1,3,5,7,9,11,-1,-1,-1,-1,-1,-1,-1],"loss_changes":[9.6849023E2,3.453662E2,2.5991846E2,1.4730487E2,2.059807E2,1.17442444E2,0E0,0E0,0E0,0E0,0E0,0E0,0E0],"parents":[2147483647,0,0,1,1,2,2,3,3,4,4,5,5],"right_children":[2,4,6,8,10,12,-1,-1,-1,-1,-1,-1,-1],"split_conditions":[4.85E1,4.05E1,6.35E1,3.35E1,4.8E1,5.7E1,1.2427167E0,-2.6224023E-1,-6.572172E-2,3.5914597E-3,-1.2377919E-1,9.1597356E-2,3.1288043E-1],"split_indices":[0,0,0,0,0,0,0,0,0,0,0,0,0],"split_type":[0,0,0,0,0,0,0,0,0,0,0,0,0],"sum_hessian":[4.247E3,3.482E3,7.65E2,9.31E2,2.551E3,7.64E2,1E0,3.9E1,8.92E2,2.418E3,1.33E2,7.4E2,2.4E1],"tree_param":{"num_deleted":"0","num_feature":"1","num_nodes":"13","size_leaf_vector":"1"}},{"base_weights":[2.6209718E-3,-3.194843E-1,5.990544E-1,-1.4248409E0,-2.4452998E-1,5.721122E-1,7.167404E0,-4.2551237E-1,-1.2637787E-1,-4.313596E-2,-7.852316E-3,3.7393708E-2,1.1494414E-1,3.8785616E-1,1.180581E0],"categories":[],"categories_nodes":[],"categories_segments":[],"categories_sizes":[],"default_left":[0,0,0,0,0,0,0,0,0,0,0,0,0,0,0],"id":21,"left_children":[1,3,5,7,9,11,13,-1,-1,-1,-1,-1,-1,-1,-1],"loss_changes":[8.162931E2,2.2823819E2,2.5957837E2,7.4396454E1,8.013988E1,1.6947238E2,4.5740326E1,0E0,0E0,0E0,0E0,0E0,0E0,0E0,0E0],"parents":[2147483647,0,0,1,1,2,2,3,3,4,4,5,5,6,6],"right_children":[2,4,6,8,10,12,14,-1,-1,-1,-1,-1,-1,-1,-1],"split_conditions":[4.6E1,3.6E1,5.9E1,3.2E1,4.2E1,5.1E1,6.35E1,-4.2551237E-1,-1.2637787E-1,-4.313596E-2,-7.852316E-3,3.7393708E-2,1.1494414E-1,3.8785616E-1,1.180581E0],"split_indices":[0,0,0,0,0,0,0,0,0,0,0,0,0,0,0],"split_type":[0,0,0,0,0,0,0,0,0,0,0,0,0,0,0],"sum_hessian":[4.247E3,2.758E3,1.489E3,1.74E2,2.584E3,1.484E3,5E0,8E0,1.66E2,1.215E3,1.369E3,1.106E3,3.78E2,4E0,1E0],"tree_param":{"num_deleted":"0","num_feature":"1","num_nodes":"15","size_leaf_vector":"1"}},{"base_weights":[2.6211585E-3,-2.8775498E-1,5.4030246E-1,-1.2855113E0,-2.2009729E-1,5.0151175E-1,4.5941267E0,-3.8768905E-1,-1.1381584E-1,-3.8825847E-2,-7.067825E-3,3.0116295E-2,9.261397E-2,3.2220563E-1,1.1215519E0],"categories":[],"categories_nodes":[],"categories_segments":[],"categories_sizes":[],"default_left":[0,0,0,0,0,0,0,0,0,0,0,0,0,0,0],"id":22,"left_children":[1,3,5,7,9,11,13,-1,-1,-1,-1,-1,-1,-1,-1],"loss_changes":[6.6339496E2,1.8596574E2,2.3199936E2,6.2410736E1,6.4924515E1,1.2537494E2,9.105319E1,0E0,0E0,0E0,0E0,0E0,0E0,0E0,0E0],"parents":[2147483647,0,0,1,1,2,2,3,3,4,4,5,5,6,6],"right_children":[2,4,6,8,10,12,14,-1,-1,-1,-1,-1,-1,-1,-1],"split_conditions":[4.6E1,3.6E1,5.75E1,3.2E1,4.2E1,5E1,6.35E1,-3.8768905E-1,-1.1381584E-1,-3.8825847E-2,-7.067825E-3,3.0116295E-2,9.261397E-2,3.2220563E-1,1.1215519E0],"split_indices":[0,0,0,0,0,0,0,0,0,0,0,0,0,0,0],"split_type":[0,0,0,0,0,0,0,0,0,0,0,0,0,0,0],"sum_hessian":[4.247E3,2.758E3,1.489E3,1.74E2,2.584E3,1.476E3,1.3E1,8E0,1.66E2,1.215E3,1.369E3,1.004E3,4.72E2,1.2E1,1E0],"tree_param":{"num_deleted":"0","num_feature":"1","num_nodes":"15","size_leaf_vector":"1"}},{"base_weights":[2.5991353E-3,-1.655569E-1,7.672007E-1,-8.5248494E-1,-8.314296E-2,7.403481E-1,1.0654744E0,-5.4846335E-2,-1.613101E-1,-3.3672636E-3,-1.1819451E-1,1.3901727E-1,5.0472688E-2],"categories":[],"categories_nodes":[],"categories_segments":[],"categories_sizes":[],"default_left":[0,0,0,0,0,0,0,0,0,0,0,0,0],"id":23,"left_children":[1,3,5,7,9,11,-1,-1,-1,-1,-1,-1,-1],"loss_changes":[5.463024E2,1.9711028E2,1.9548999E2,8.536917E1,1.6906824E2,1.1642938E2,0E0,0E0,0E0,0E0,0E0,0E0,0E0],"parents":[2147483647,0,0,1,1,2,2,3,3,4,4,5,5],"right_children":[2,4,6,8,10,12,-1,-1,-1,-1,-1,-1,-1],"split_conditions":[4.85E1,3.75E1,6.35E1,3.7E1,4.8E1,4.95E1,1.0654744E0,-5.4846335E-2,-1.613101E-1,-3.3672636E-3,-1.1819451E-1,1.3901727E-1,5.0472688E-2],"split_indices":[0,0,0,0,0,0,0,0,0,0,0,0,0],"split_type":[0,0,0,0,0,0,0,0,0,0,0,0,0],"sum_hessian":[4.247E3,3.482E3,7.65E2,3.72E2,3.11E3,7.64E2,1E0,2.67E2,1.05E2,2.977E3,1.33E2,2.02E2,5.62E2],"tree_param":{"num_deleted":"0","num_feature":"1","num_nodes":"13","size_leaf_vector":"1"}},{"base_weights":[2.555936E-3,-2.4481766E-1,4.6061045E-1,-1.1052922E0,-1.8647033E-1,4.3751842E-1,6.099115E0,-3.4835255E-1,-9.705054E-2,6.498113E-2,-2.1794064E-2,3.3224616E-2,1.1281496E-1,3.2701355E-1,1.0122006E0],"categories":[],"categories_nodes":[],"categories_segments":[],"categories_sizes":[],"default_left":[0,0,0,0,0,0,0,0,0,0,0,0,0,0,0],"id":24,"left_children":[1,3,5,7,9,11,13,-1,-1,-1,-1,-1,-1,-1,-1],"loss_changes":[4.8145615E2,1.3831334E2,1.9133612E2,5.2716263E1,6.817375E1,1.07591095E2,3.51837E1,0E0,0E0,0E0,0E0,0E0,0E0,0E0,0E0],"parents":[2147483647,0,0,1,1,2,2,3,3,4,4,5,5,6,6],"right_children":[2,4,6,8,10,12,14,-1,-1,-1,-1,-1,-1,-1,-1],"split_conditions":[4.6E1,3.6E1,5.9E1,3.2E1,3.7E1,5.3E1,6.35E1,-3.4835255E-1,-9.705054E-2,6.498113E-2,-2.1794064E-2,3.3224616E-2,1.1281496E-1,3.2701355E-1,1.0122006E0],"split_indices":[0,0,0,0,0,0,0,0,0,0,0,0,0,0,0],"split_type":[0,0,0,0,0,0,0,0,0,0,0,0,0,0,0],"sum_hessian":[4.247E3,2.758E3,1.489E3,1.74E2,2.584E3,1.484E3,5E0,8E0,1.66E2,9.3E1,2.491E3,1.289E3,1.95E2,4E0,1E0],"tree_param":{"num_deleted":"0","num_feature":"1","num_nodes":"15","size_leaf_vector":"1"}},{"base_weights":[2.554421E-3,-3.1676224E-1,2.9855472E-1,-1.8195684E0,-2.8662306E-1,2.6696065E-1,2.9361126E0,2.902193E-1,-2.0150545E-1,8.6617224E-2,-3.0516554E-2,3.2284748E-2,-1.3059E-1,2.2842847E-1,9.615906E-1],"categories":[],"categories_nodes":[],"categories_segments":[],"categories_sizes":[],"default_left":[0,0,0,0,0,0,0,0,0,0,0,0,0,0,0],"id":25,"left_children":[1,3,5,7,9,11,13,-1,-1,-1,-1,-1,-1,-1,-1],"loss_changes":[4.0160632E2,9.205803E1,1.829614E2,4.2769592E1,4.3122528E1,1.9204831E2,9.124051E1,0E0,0E0,0E0,0E0,0E0,0E0,0E0,0E0],"parents":[2147483647,0,0,1,1,2,2,3,3,4,4,5,5,6,6],"right_children":[2,4,6,8,10,12,14,-1,-1,-1,-1,-1,-1,-1,-1],"split_conditions":[4.4E1,3.35E1,5.7E1,3.05E1,3.45E1,5.45E1,6.35E1,2.902193E-1,-2.0150545E-1,8.6617224E-2,-3.0516554E-2,3.2284748E-2,-1.3059E-1,2.2842847E-1,9.615906E-1],"split_indices":[0,0,0,0,0,0,0,0,0,0,0,0,0,0,0],"split_type":[0,0,0,0,0,0,0,0,0,0,0,0,0,0,0],"sum_hessian":[4.247E3,2.043E3,2.204E3,3.9E1,2.004E3,2.179E3,2.5E1,1E0,3.8E1,3.1E1,1.973E3,2.105E3,7.4E1,2.4E1,1E0],"tree_param":{"num_deleted":"0","num_feature":"1","num_nodes":"15","size_leaf_vector":"1"}},{"base_weights":[2.5909918E-3,-1.622593E-1,5.145004E-1,-5.1670176E-1,-5.7887446E-2,1.5700132E-1,3.5307688E-1,-2.4554674E-2,-1.3392968E-1,-5.8799516E-4,-7.748129E-2,-1.12965345E-1,6.1199695E-2],"categories":[],"categories_nodes":[],"categories_segments":[],"categories_sizes":[],"default_left":[0,0,0,0,0,0,0,0,0,0,0,0,0],"id":26,"left_children":[1,3,5,7,9,-1,11,-1,-1,-1,-1,-1,-1],"loss_changes":[3.585655E2,1.188682E2,1.7579367E2,1.6272125E2,9.261262E1,0E0,3.4582523E2,0E0,0E0,0E0,0E0,0E0,0E0],"parents":[2147483647,0,0,1,1,2,2,3,3,4,4,6,6],"right_children":[2,4,6,8,10,-1,12,-1,-1,-1,-1,-1,-1],"split_conditions":[4.75E1,3.95E1,4.8E1,3.85E1,4.7E1,1.5700132E-1,4.85E1,-2.4554674E-2,-1.3392968E-1,-5.8799516E-4,-7.748129E-2,-1.12965345E-1,6.1199695E-2],"split_indices":[0,0,0,0,0,0,0,0,0,0,0,0,0],"split_type":[0,0,0,0,0,0,0,0,0,0,0,0,0],"sum_hessian":[4.247E3,3.213E3,1.034E3,7.3E2,2.483E3,1.36E2,8.98E2,5.5E2,1.8E2,2.316E3,1.67E2,1.33E2,7.65E2],"tree_param":{"num_deleted":"0","num_feature":"1","num_nodes":"13","size_leaf_vector":"1"}},{"base_weights":[2.3008017E-3,-1.78843E-1,3.917113E-1,-9.280045E-1,-1.3068376E-1,3.7849373E-1,9.1045076E-1,-3.027572E-1,-8.092972E-2,6.4000994E-2,-1.5814846E-2,2.7598921E-2,1.1017384E-1],"categories":[],"categories_nodes":[],"categories_segments":[],"categories_sizes":[],"default_left":[0,0,0,0,0,0,0,0,0,0,0,0,0],"id":27,"left_children":[1,3,5,7,9,11,-1,-1,-1,-1,-1,-1,-1],"loss_changes":[2.99721E2,1.0450799E2,1.5190768E2,4.1165726E1,5.7802086E1,9.963103E1,0E0,0E0,0E0,0E0,0E0,0E0,0E0],"parents":[2147483647,0,0,1,1,2,2,3,3,4,4,5,5],"right_children":[2,4,6,8,10,12,-1,-1,-1,-1,-1,-1,-1],"split_conditions":[4.65E1,3.6E1,6.35E1,3.2E1,3.7E1,5.35E1,9.1045076E-1,-3.027572E-1,-8.092972E-2,6.4000994E-2,-1.5814846E-2,2.7598921E-2,1.1017384E-1],"split_indices":[0,0,0,0,0,0,0,0,0,0,0,0,0],"split_type":[0,0,0,0,0,0,0,0,0,0,0,0,0],"sum_hessian":[4.247E3,2.899E3,1.348E3,1.74E2,2.725E3,1.347E3,1E0,8E0,1.66E2,9.3E1,2.632E3,1.181E3,1.66E2],"tree_param":{"num_deleted":"0","num_feature":"1","num_nodes":"13","size_leaf_vector":"1"}},{"base_weights":[2.238996E-3,-8.450364E-2,6.7386514E-1,-4.1738026E-2,-2.0782606E-1,9.396601E-1,-3.614998E-1,-1.0817042E-2,1.0982903E-1,5.2187126E-2,4.7629872E-1,-1.3461392E-1,2.4927102E-1],"categories":[],"categories_nodes":[],"categories_segments":[],"categories_sizes":[],"default_left":[0,0,0,0,0,0,0,0,0,0,0,0,0],"id":28,"left_children":[1,3,5,7,-1,9,11,-1,-1,-1,-1,-1,-1],"loss_changes":[2.475396E2,3.2076263E2,1.3408429E2,2.7920157E2,0E0,6.1568616E2,2.843923E2,0E0,0E0,0E0,0E0,0E0,0E0],"parents":[2147483647,0,0,1,1,2,2,3,3,5,5,6,6],"right_children":[2,4,6,8,-1,10,12,-1,-1,-1,-1,-1,-1],"split_conditions":[5E1,4.95E1,5.45E1,4.85E1,-2.0782606E-1,5.4E1,5.7E1,-1.0817042E-2,1.0982903E-1,5.2187126E-2,4.7629872E-1,-1.3461392E-1,2.4927102E-1],"split_indices":[0,0,0,0,0,0,0,0,0,0,0,0,0],"split_type":[0,0,0,0,0,0,0,0,0,0,0,0,0],"sum_hessian":[4.247E3,3.762E3,4.85E2,3.684E3,7.8E1,3.86E2,9.9E1,3.482E3,2.02E2,3.49E2,3.7E1,7.4E1,2.5E1],"tree_param":{"num_deleted":"0","num_feature":"1","num_nodes":"13","size_leaf_vector":"1"}},{"base_weights":[2.1418694E-3,-2.3683447E-1,2.2366817E-1,-6.2367517E-1,-1.5039402E-1,2.1603404E-1,8.524647E-1,-3.337576E-2,-1.3507907E-1,1.2916915E-1,-2.390564E-2,1.5981324E-2,9.008361E-2],"categories":[],"categories_nodes":[],"categories_segments":[],"categories_sizes":[],"default_left":[0,0,0,0,0,0,0,0,0,0,0,0,0],"id":29,"left_children":[1,3,5,7,9,11,-1,-1,-1,-1,-1,-1,-1],"loss_changes":[2.2494014E2,6.825487E1,1.378909E2,7.817888E1,2.1408856E2,8.471028E1,0E0,0E0,0E0,0E0,0E0,0E0,0E0],"parents":[2147483647,0,0,1,1,2,2,3,3,4,4,5,5],"right_children":[2,4,6,8,10,12,-1,-1,-1,-1,-1,-1,-1],"split_conditions":[4.4E1,3.75E1,6.35E1,3.7E1,3.8E1,5.35E1,8.524647E-1,-3.337576E-2,-1.3507907E-1,1.2916915E-1,-2.390564E-2,1.5981324E-2,9.008361E-2],"split_indices":[0,0,0,0,0,0,0,0,0,0,0,0,0],"split_type":[0,0,0,0,0,0,0,0,0,0,0,0,0],"sum_hessian":[4.247E3,2.043E3,2.204E3,3.72E2,1.671E3,2.203E3,1E0,2.67E2,1.05E2,9.6E1,1.575E3,2.037E3,1.66E2],"tree_param":{"num_deleted":"0","num_feature":"1","num_nodes":"13","size_leaf_vector":"1"}},{"base_weights":[2.1395024E-3,-2.1318127E-1,2.0173746E-1,-1.3527745E0,-1.8509848E-1,1.9448017E-1,8.098416E-1,2.942837E-1,-1.5035754E-1,1.6588958E-1,-2.0648995E-2,1.11394515E-2,5.8922578E-2],"categories":[],"categories_nodes":[],"categories_segments":[],"categories_sizes":[],"default_left":[0,0,0,0,0,0,0,0,0,0,0,0,0],"id":30,"left_children":[1,3,5,7,9,11,-1,-1,-1,-1,-1,-1,-1],"loss_changes":[1.826118E2,6.516365E1,1.24790436E2,3.616613E1,7.907626E1,7.2220474E1,0E0,0E0,0E0,0E0,0E0,0E0,0E0],"parents":[2147483647,0,0,1,1,2,2,3,3,4,4,5,5],"right_children":[2,4,6,8,10,12,-1,-1,-1,-1,-1,-1,-1],"split_conditions":[4.4E1,3.4E1,6.35E1,3.05E1,3.45E1,5.1E1,8.098416E-1,2.942837E-1,-1.5035754E-1,1.6588958E-1,-2.0648995E-2,1.11394515E-2,5.8922578E-2],"split_indices":[0,0,0,0,0,0,0,0,0,0,0,0,0],"split_type":[0,0,0,0,0,0,0,0,0,0,0,0,0],"sum_hessian":[4.247E3,2.043E3,2.204E3,4.8E1,1.995E3,2.203E3,1E0,1E0,4.7E1,2.2E1,1.973E3,1.821E3,3.82E2],"tree_param":{"num_deleted":"0","num_feature":"1","num_nodes":"13","size_leaf_vector":"1"}},{"base_weights":[2.2010296E-3,-1.2646683E-1,2.7880192E-1,-7.6334006E-1,-8.553533E-2,2.6759407E-1,7.693493E-1,-2.6349244E-1,-6.579053E-2,6.40844E-2,-1.1143511E-2,1.0799463E-1,1.6726457E-2],"categories":[],"categories_nodes":[],"categories_segments":[],"categories_sizes":[],"default_left":[0,0,0,0,0,0,0,0,0,0,0,0,0],"id":31,"left_children":[1,3,5,7,9,11,-1,-1,-1,-1,-1,-1,-1],"loss_changes":[1.5122008E2,7.5532425E1,1.10046875E2,3.2799217E1,5.1355835E1,1.09685265E2,0E0,0E0,0E0,0E0,0E0,0E0,0E0],"parents":[2147483647,0,0,1,1,2,2,3,3,4,4,5,5],"right_children":[2,4,6,8,10,12,-1,-1,-1,-1,-1,-1,-1],"split_conditions":[4.65E1,3.6E1,6.35E1,3.2E1,3.7E1,4.7E1,7.693493E-1,-2.6349244E-1,-6.579053E-2,6.40844E-2,-1.1143511E-2,1.0799463E-1,1.6726457E-2],"split_indices":[0,0,0,0,0,0,0,0,0,0,0,0,0],"split_type":[0,0,0,0,0,0,0,0,0,0,0,0,0],"sum_hessian":[4.247E3,2.899E3,1.348E3,1.74E2,2.725E3,1.347E3,1E0,8E0,1.66E2,9.3E1,2.632E3,1.47E2,1.2E3],"tree_param":{"num_deleted":"0","num_feature":"1","num_nodes":"13","size_leaf_vector":"1"}},{"base_weights":[2.1256874E-3,-6.169376E-2,4.9626243E-1,-2.1916244E-2,-1.9163577E-1,7.5523883E-1,-5.109387E-1,-7.828652E-3,9.453723E-2,3.8582604E-2,4.1378498E-1,-1.9159053E-1,1.1141491E-1],"categories":[],"categories_nodes":[],"categories_segments":[],"categories_sizes":[],"default_left":[0,0,0,0,0,0,0,0,0,0,0,0,0],"id":32,"left_children":[1,3,5,7,-1,9,11,-1,-1,-1,-1,-1,-1],"loss_changes":[1.3399358E2,2.775693E2,1.2715474E2,2.0100348E2,0E0,4.8199084E2,2.3045401E2,0E0,0E0,0E0,0E0,0E0,0E0],"parents":[2147483647,0,0,1,1,2,2,3,3,5,5,6,6],"right_children":[2,4,6,8,-1,10,12,-1,-1,-1,-1,-1,-1],"split_conditions":[5E1,4.95E1,5.45E1,4.85E1,-1.9163577E-1,5.4E1,5.6E1,-7.828652E-3,9.453723E-2,3.8582604E-2,4.1378498E-1,-1.9159053E-1,1.1141491E-1],"split_indices":[0,0,0,0,0,0,0,0,0,0,0,0,0],"split_type":[0,0,0,0,0,0,0,0,0,0,0,0,0],"sum_hessian":[4.247E3,3.762E3,4.85E2,3.684E3,7.8E1,3.86E2,9.9E1,3.482E3,2.02E2,3.49E2,3.7E1,5.3E1,4.6E1],"tree_param":{"num_deleted":"0","num_feature":"1","num_nodes":"13","size_leaf_vector":"1"}},{"base_weights":[1.9754076E-3,-2.4207078E-1,1.2062606E-1,-1.1100449E-1,-1.3580672E-1,1.1178203E-1,4.3073325E0,-3.113078E-2,4.8387982E-2,1.1740464E-2,-5.270696E-1,2.2675538E-1,7.253113E-1],"categories":[],"categories_nodes":[],"categories_segments":[],"categories_sizes":[],"default_left":[0,0,0,0,0,0,0,0,0,0,0,0,0],"id":33,"left_children":[1,3,5,7,-1,9,11,-1,-1,-1,-1,-1,-1],"loss_changes":[1.230353E2,2.0316386E2,1.05379745E2,1.4850145E2,0E0,8.6990875E1,1.9605614E1,0E0,0E0,0E0,0E0,0E0,0E0],"parents":[2147483647,0,0,1,1,2,2,3,3,5,5,6,6],"right_children":[2,4,6,8,-1,10,12,-1,-1,-1,-1,-1,-1],"split_conditions":[4.2E1,4.15E1,5.9E1,4.05E1,-1.3580672E-1,5.85E1,6.35E1,-3.113078E-2,4.8387982E-2,1.1740464E-2,-5.270696E-1,2.2675538E-1,7.253113E-1],"split_indices":[0,0,0,0,0,0,0,0,0,0,0,0,0],"split_type":[0,0,0,0,0,0,0,0,0,0,0,0,0],"sum_hessian":[4.247E3,1.389E3,2.858E3,1.244E3,1.45E2,2.853E3,5E0,9.31E2,3.13E2,2.851E3,2E0,4E0,1E0],"tree_param":{"num_deleted":"0","num_feature":"1","num_nodes":"13","size_leaf_vector":"1"}},{"base_weights":[1.8520907E-3,-7.102556E-3,2.7105005E0,-2.1794866E-1,9.5878184E-2,7.561661E-1,7.00033E-1,-9.988985E-3,-1.22319035E-1,1.2990561E-2,-9.8471455E-2,-2.7518845E-1,4.0352783E-1],"categories":[],"categories_nodes":[],"categories_segments":[],"categories_sizes":[],"default_left":[0,0,0,0,0,0,0,0,0,0,0,0,0],"id":34,"left_children":[1,3,5,7,9,-1,11,-1,-1,-1,-1,-1,-1],"loss_changes":[1.0305445E2,9.197582E1,1.3124997E2,1.6483975E2,1.04774734E2,0E0,1.3774753E2,0E0,0E0,0E0,0E0,0E0,0E0],"parents":[2147483647,0,0,1,1,2,2,3,3,4,4,6,6],"right_children":[2,4,6,8,10,-1,12,-1,-1,-1,-1,-1,-1],"split_conditions":[5.75E1,4.2E1,5.8E1,4.15E1,5.45E1,7.561661E-1,5.9E1,-9.988985E-3,-1.22319035E-1,1.2990561E-2,-9.8471455E-2,-2.7518845E-1,4.0352783E-1],"split_indices":[0,0,0,0,0,0,0,0,0,0,0,0,0],"split_type":[0,0,0,0,0,0,0,0,0,0,0,0,0],"sum_hessian":[4.247E3,4.234E3,1.3E1,1.389E3,2.845E3,3E0,1E1,1.244E3,1.45E2,2.759E3,8.6E1,5E0,5E0],"tree_param":{"num_deleted":"0","num_feature":"1","num_nodes":"13","size_leaf_vector":"1"}},{"base_weights":[1.825307E-3,-5.422208E-2,4.3578517E-1,-1.781926E-2,-1.7515661E-1,6.562178E-1,-4.2164704E-1,-6.7034946E-3,8.266933E-2,3.2269444E-2,3.7108752E-1,-1.642739E-1,9.902809E-2],"categories":[],"categories_nodes":[],"categories_segments":[],"categories_sizes":[],"default_left":[0,0,0,0,0,0,0,0,0,0,0,0,0],"id":35,"left_children":[1,3,5,7,-1,9,11,-1,-1,-1,-1,-1,-1],"loss_changes":[1.0334483E2,2.3247743E2,9.213364E1,1.5321603E2,0E0,3.9307806E2,1.7403615E2,0E0,0E0,0E0,0E0,0E0,0E0],"parents":[2147483647,0,0,1,1,2,2,3,3,5,5,6,6],"right_children":[2,4,6,8,-1,10,12,-1,-1,-1,-1,-1,-1],"split_conditions":[5E1,4.95E1,5.45E1,4.85E1,-1.7515661E-1,5.4E1,5.6E1,-6.7034946E-3,8.266933E-2,3.2269444E-2,3.7108752E-1,-1.642739E-1,9.902809E-2],"split_indices":[0,0,0,0,0,0,0,0,0,0,0,0,0],"split_type":[0,0,0,0,0,0,0,0,0,0,0,0,0],"sum_hessian":[4.247E3,3.762E3,4.85E2,3.684E3,7.8E1,3.86E2,9.9E1,3.482E3,2.02E2,3.49E2,3.7E1,5.3E1,4.6E1],"tree_param":{"num_deleted":"0","num_feature":"1","num_nodes":"13","size_leaf_vector":"1"}},{"base_weights":[1.6982321E-3,-1.4278946E-3,6.6391796E-1,-4.5907557E-1,4.2624753E-2,-1.9185176E-2,-1.13036714E-1,1.2503964E-1,1.1612191E-3],"categories":[],"categories_nodes":[],"categories_segments":[],"categories_sizes":[],"default_left":[0,0,0,0,0,0,0,0,0],"id":36,"left_children":[1,3,-1,5,7,-1,-1,-1,-1],"loss_changes":[8.815381E1,8.56416E1,0E0,6.669377E1,1.4512784E2,0E0,0E0,0E0,0E0],"parents":[2147483647,0,0,1,1,3,3,4,4],"right_children":[2,4,-1,6,8,-1,-1,-1,-1],"split_conditions":[6.35E1,3.75E1,6.6391796E-1,3.7E1,3.8E1,-1.9185176E-2,-1.13036714E-1,1.2503964E-1,1.1612191E-3],"split_indices":[0,0,0,0,0,0,0,0,0],"split_type":[0,0,0,0,0,0,0,0,0],"sum_hessian":[4.247E3,4.246E3,1E0,3.72E2,3.874E3,2.67E2,1.05E2,9.6E1,3.778E3],"tree_param":{"num_deleted":"0","num_feature":"1","num_nodes":"9","size_leaf_vector":"1"}},{"base_weights":[1.6846454E-3,-2.6879381E-2,6.9554245E-1,-3.0605215E-1,3.402846E-2,2.2556858E0,-3.8791195E-1,-5.4532555E-3,-1.0700369E-1,4.7426787E-3,-6.659896E-2,8.875678E-2,3.3484253E-1,-1.0998634E-1,1.6807137E-1],"categories":[],"categories_nodes":[],"categories_segments":[],"categories_sizes":[],"default_left":[0,0,0,0,0,0,0,0,0,0,0,0,0,0,0],"id":37,"left_children":[1,3,5,7,9,11,13,-1,-1,-1,-1,-1,-1,-1,-1],"loss_changes":[8.421139E1,6.940296E1,2.8485284E2,1.4040851E2,3.146086E1,1.001828E2,1.4912468E2,0E0,0E0,0E0,0E0,0E0,0E0,0E0,0E0],"parents":[2147483647,0,0,1,1,2,2,3,3,4,4,5,5,6,6],"right_children":[2,4,6,8,10,12,14,-1,-1,-1,-1,-1,-1,-1,-1],"split_conditions":[5.35E1,3.95E1,5.45E1,3.85E1,5.25E1,5.4E1,5.7E1,-5.4532555E-3,-1.0700369E-1,4.7426787E-3,-6.659896E-2,8.875678E-2,3.3484253E-1,-1.0998634E-1,1.6807137E-1],"split_indices":[0,0,0,0,0,0,0,0,0,0,0,0,0,0,0],"split_type":[0,0,0,0,0,0,0,0,0,0,0,0,0,0,0],"sum_hessian":[4.247E3,4.08E3,1.67E2,7.3E2,3.35E3,6.8E1,9.9E1,5.5E2,1.8E2,3.288E3,6.2E1,3.1E1,3.7E1,7.4E1,2.5E1],"tree_param":{"num_deleted":"0","num_feature":"1","num_nodes":"15","size_leaf_vector":"1"}},{"base_weights":[1.5894909E-3,-1.3407619E-3,6.223187E-1,-7.348829E-2,2.2291794E-1,-3.483699E-3,-7.7406585E-2,1.3379888E-1,5.2553094E-3],"categories":[],"categories_nodes":[],"categories_segments":[],"categories_sizes":[],"default_left":[0,0,0,0,0,0,0,0,0],"id":38,"left_children":[1,3,-1,5,7,-1,-1,-1,-1],"loss_changes":[7.7453E1,6.873161E1,0E0,8.700249E1,1.9635751E2,0E0,0E0,0E0,0E0],"parents":[2147483647,0,0,1,1,3,3,4,4],"right_children":[2,4,-1,6,8,-1,-1,-1,-1],"split_conditions":[6.35E1,4.75E1,6.223187E-1,4.7E1,4.8E1,-3.483699E-3,-7.7406585E-2,1.3379888E-1,5.2553094E-3],"split_indices":[0,0,0,0,0,0,0,0,0],"split_type":[0,0,0,0,0,0,0,0,0],"sum_hessian":[4.247E3,4.246E3,1E0,3.213E3,1.033E3,3.046E3,1.67E2,1.36E2,8.97E2],"tree_param":{"num_deleted":"0","num_feature":"1","num_nodes":"9","size_leaf_vector":"1"}},{"base_weights":[1.5898123E-3,-3.216309E-2,5.131391E-1,-6.0559064E-1,-5.8299364E-3,1.0423605E0,-3.599153E-1,-2.3262441E-1,-5.0923448E-2,6.60326E-2,-2.2665868E-3,4.432334E-2,3.017276E-1,-1.3798577E-1,8.195912E-2],"categories":[],"categories_nodes":[],"categories_segments":[],"categories_sizes":[],"default_left":[0,0,0,0,0,0,0,0,0,0,0,0,0,0,0],"id":39,"left_children":[1,3,5,7,9,11,13,-1,-1,-1,-1,-1,-1,-1,-1],"loss_changes":[7.336364E1,6.0185684E1,1.2189144E2,2.7829613E1,4.2767906E1,1.9271161E2,1.2143379E2,0E0,0E0,0E0,0E0,0E0,0E0,0E0,0E0],"parents":[2147483647,0,0,1,1,2,2,3,3,4,4,5,5,6,6],"right_children":[2,4,6,8,10,12,14,-1,-1,-1,-1,-1,-1,-1,-1],"split_conditions":[5.2E1,3.6E1,5.45E1,3.2E1,3.7E1,5.4E1,5.6E1,-2.3262441E-1,-5.0923448E-2,6.60326E-2,-2.2665868E-3,4.432334E-2,3.017276E-1,-1.3798577E-1,8.195912E-2],"split_indices":[0,0,0,0,0,0,0,0,0,0,0,0,0,0,0],"split_type":[0,0,0,0,0,0,0,0,0,0,0,0,0,0,0],"sum_hessian":[4.247E3,3.985E3,2.62E2,1.74E2,3.811E3,1.63E2,9.9E1,8E0,1.66E2,9.3E1,3.718E3,1.26E2,3.7E1,5.3E1,4.6E1],"tree_param":{"num_deleted":"0","num_feature":"1","num_nodes":"15","size_leaf_vector":"1"}},{"base_weights":[1.4467648E-3,-1.3176905E-3,5.8710444E-1,-3.9278343E-1,3.6364384E-2,-1.4826342E-2,-1.0072984E-1,1.1377356E-1,8.084583E-4],"categories":[],"categories_nodes":[],"categories_segments":[],"categories_sizes":[],"default_left":[0,0,0,0,0,0,0,0,0],"id":40,"left_children":[1,3,-1,5,7,-1,-1,-1,-1],"loss_changes":[6.8936806E1,6.2662807E1,0E0,5.589808E1,1.20683716E2,0E0,0E0,0E0,0E0],"parents":[2147483647,0,0,1,1,3,3,4,4],"right_children":[2,4,-1,6,8,-1,-1,-1,-1],"split_conditions":[6.35E1,3.75E1,5.8710444E-1,3.7E1,3.8E1,-1.4826342E-2,-1.0072984E-1,1.1377356E-1,8.084583E-4],"split_indices":[0,0,0,0,0,0,0,0,0],"split_type":[0,0,0,0,0,0,0,0,0],"sum_hessian":[4.247E3,4.246E3,1E0,3.72E2,3.874E3,2.67E2,1.05E2,9.6E1,3.778E3],"tree_param":{"num_deleted":"0","num_feature":"1","num_nodes":"9","size_leaf_vector":"1"}},{"base_weights":[1.4399472E-3,-4.2114083E-2,3.3866706E-1,-8.957138E-3,-1.5882055E-1,5.1087075E-1,-3.311479E-1,-5.2301823E-3,7.347792E-2,2.6926953E-2,2.7227014E-1,-9.227679E-2,1.3881847E-1],"categories":[],"categories_nodes":[],"categories_segments":[],"categories_sizes":[],"default_left":[0,0,0,0,0,0,0,0,0,0,0,0,0],"id":41,"left_children":[1,3,5,7,-1,9,11,-1,-1,-1,-1,-1,-1],"loss_changes":[6.240719E1,1.9289098E2,5.6226658E1,1.1883183E2,0E0,2.060723E2,1.0300012E2,0E0,0E0,0E0,0E0,0E0,0E0],"parents":[2147483647,0,0,1,1,2,2,3,3,5,5,6,6],"right_children":[2,4,6,8,-1,10,12,-1,-1,-1,-1,-1,-1],"split_conditions":[5E1,4.95E1,5.45E1,4.85E1,-1.5882055E-1,5.4E1,5.7E1,-5.2301823E-3,7.347792E-2,2.6926953E-2,2.7227014E-1,-9.227679E-2,1.3881847E-1],"split_indices":[0,0,0,0,0,0,0,0,0,0,0,0,0],"split_type":[0,0,0,0,0,0,0,0,0,0,0,0,0],"sum_hessian":[4.247E3,3.762E3,4.85E2,3.684E3,7.8E1,3.86E2,9.9E1,3.482E3,2.02E2,3.49E2,3.7E1,7.4E1,2.5E1],"tree_param":{"num_deleted":"0","num_feature":"1","num_nodes":"13","size_leaf_vector":"1"}},{"base_weights":[1.3557428E-3,-1.2378081E-3,5.5080837E-1,-2.5510168E-1,5.152754E-2,-2.5215354E-3,-9.5351204E-2,2.4998595E-3,3.8101885E-2],"categories":[],"categories_nodes":[],"categories_segments":[],"categories_sizes":[],"default_left":[0,0,0,0,0,0,0,0,0],"id":42,"left_children":[1,3,-1,5,7,-1,-1,-1,-1],"loss_changes":[6.0676662E1,5.690263E1,0E0,1.17341644E2,3.0732773E1,0E0,0E0,0E0,0E0],"parents":[2147483647,0,0,1,1,3,3,4,4],"right_children":[2,4,-1,6,8,-1,-1,-1,-1],"split_conditions":[6.35E1,3.95E1,5.5080837E-1,3.85E1,5.2E1,-2.5215354E-3,-9.5351204E-2,2.4998595E-3,3.8101885E-2],"split_indices":[0,0,0,0,0,0,0,0,0],"split_type":[0,0,0,0,0,0,0,0,0],"sum_hessian":[4.247E3,4.246E3,1E0,7.3E2,3.516E3,5.5E2,1.8E2,3.255E3,2.61E2],"tree_param":{"num_deleted":"0","num_feature":"1","num_nodes":"9","size_leaf_vector":"1"}},{"base_weights":[1.3373742E-3,-1.1264867E-3,5.2326775E-1,-5.2420276E-1,2.134822E-2,3.0969286E-1,-5.6281235E-2,6.173351E-2,7.2667835E-4],"categories":[],"categories_nodes":[],"categories_segments":[],"categories_sizes":[],"default_left":[0,0,0,0,0,0,0,0,0],"id":43,"left_children":[1,3,-1,5,7,-1,-1,-1,-1],"loss_changes":[5.4759617E1,4.9938854E1,0E0,2.6209778E1,3.4177555E1,0E0,0E0,0E0,0E0],"parents":[2147483647,0,0,1,1,3,3,4,4],"right_children":[2,4,-1,6,8,-1,-1,-1,-1],"split_conditions":[6.35E1,3.6E1,5.2326775E-1,3.05E1,3.7E1,3.0969286E-1,-5.6281235E-2,6.173351E-2,7.2667835E-4],"split_indices":[0,0,0,0,0,0,0,0,0],"split_type":[0,0,0,0,0,0,0,0,0],"sum_hessian":[4.247E3,4.246E3,1E0,1.74E2,4.072E3,1E0,1.73E2,9.3E1,3.979E3],"tree_param":{"num_deleted":"0","num_feature":"1","num_nodes":"9","size_leaf_vector":"1"}},{"base_weights":[1.4029793E-3,-9.3765697E-4,4.9710426E-1,-2.485146E-1,4.297869E-2,-1.6381185E-3,-1.6669255E-1,9.109227E-4,2.610513E-2],"categories":[],"categories_nodes":[],"categories_segments":[],"categories_sizes":[],"default_left":[0,0,0,0,0,0,0,0,0],"id":44,"left_children":[1,3,-1,5,7,-1,-1,-1,-1],"loss_changes":[4.9417904E1,4.6186928E1,0E0,2.1069948E2,2.6646317E1,0E0,0E0,0E0,0E0],"parents":[2147483647,0,0,1,1,3,3,4,4],"right_children":[2,4,-1,6,8,-1,-1,-1,-1],"split_conditions":[6.35E1,3.9E1,4.9710426E-1,3.85E1,5E1,-1.6381185E-3,-1.6669255E-1,9.109227E-4,2.610513E-2],"split_indices":[0,0,0,0,0,0,0,0,0],"split_type":[0,0,0,0,0,0,0,0,0],"sum_hessian":[4.247E3,4.246E3,1E0,6.39E2,3.607E3,5.5E2,8.9E1,3.123E3,4.84E2],"tree_param":{"num_deleted":"0","num_feature":"1","num_nodes":"9","size_leaf_vector":"1"}},{"base_weights":[1.3457472E-3,-3.3477303E-1,3.3691198E-2,-1.10384695E-1,-8.989363E-2,1.03370905E-1,8.02045E-3,-4.6870627E-2,5.578777E-2,-6.901929E-2,4.129412E-3],"categories":[],"categories_nodes":[],"categories_segments":[],"categories_sizes":[],"default_left":[0,0,0,0,0,0,0,0,0,0,0],"id":45,"left_children":[1,3,5,7,-1,-1,9,-1,-1,-1,-1],"loss_changes":[4.6195164E1,4.711946E1,9.94933E1,6.443484E1,0E0,0E0,8.784591E1,0E0,0E0,0E0,0E0],"parents":[2147483647,0,0,1,1,2,2,3,3,6,6],"right_children":[2,4,6,8,-1,-1,10,-1,-1,-1,-1],"split_conditions":[3.75E1,3.7E1,3.8E1,3.6E1,-8.989363E-2,1.03370905E-1,3.9E1,-4.6870627E-2,5.578777E-2,-6.901929E-2,4.129412E-3],"split_indices":[0,0,0,0,0,0,0,0,0,0,0],"split_type":[0,0,0,0,0,0,0,0,0,0,0],"sum_hessian":[4.247E3,3.72E2,3.875E3,2.67E2,1.05E2,9.6E1,3.779E3,1.74E2,9.3E1,1.71E2,3.608E3],"tree_param":{"num_deleted":"0","num_feature":"1","num_nodes":"11","size_leaf_vector":"1"}},{"base_weights":[1.1996132E-3,-1.0230516E-3,4.7204286E-1,-1.4222912E0,5.362646E-3,2.9663372E-1,-1.8309003E-1,-8.521688E-3,8.862434E-3],"categories":[],"categories_nodes":[],"categories_segments":[],"categories_sizes":[],"default_left":[0,0,0,0,0,0,0,0,0],"id":46,"left_children":[1,3,-1,5,7,-1,-1,-1,-1],"loss_changes":[4.4563217E1,3.85525E1,0E0,3.9502506E1,3.1901842E1,0E0,0E0,0E0,0E0],"parents":[2147483647,0,0,1,1,3,3,4,4],"right_children":[2,4,-1,6,8,-1,-1,-1,-1],"split_conditions":[6.35E1,3.3E1,4.7204286E-1,3.05E1,4.4E1,2.9663372E-1,-1.8309003E-1,-8.521688E-3,8.862434E-3],"split_indices":[0,0,0,0,0,0,0,0,0],"split_type":[0,0,0,0,0,0,0,0,0],"sum_hessian":[4.247E3,4.246E3,1E0,1.8E1,4.228E3,1E0,1.7E1,2.025E3,2.203E3],"tree_param":{"num_deleted":"0","num_feature":"1","num_nodes":"9","size_leaf_vector":"1"}},{"base_weights":[1.2182053E-3,-4.38654E-3,1.6965667E0,9.753002E-3,-8.841382E-1,6.564769E-1,-2.2792192E-1,-1.6350991E-3,1.20661415E-1,-2.3251323E-1,-1.7574675E-2,-3.0000815E-1,2.5822246E-1],"categories":[],"categories_nodes":[],"categories_segments":[],"categories_sizes":[],"default_left":[0,0,0,0,0,0,0,0,0,0,0,0,0],"id":47,"left_children":[1,3,5,7,9,-1,11,-1,-1,-1,-1,-1,-1],"loss_changes":[4.0371925E1,5.2689E1,1.3265944E2,1.3027118E2,6.798416E1,0E0,9.34388E1,0E0,0E0,0E0,0E0,0E0,0E0],"parents":[2147483647,0,0,1,1,2,2,3,3,4,4,6,6],"right_children":[2,4,6,8,10,-1,12,-1,-1,-1,-1,-1,-1],"split_conditions":[5.75E1,5.5E1,5.8E1,5.35E1,5.55E1,6.564769E-1,5.9E1,-1.6350991E-3,1.20661415E-1,-2.3251323E-1,-1.7574675E-2,-3.0000815E-1,2.5822246E-1],"split_indices":[0,0,0,0,0,0,0,0,0,0,0,0,0],"split_type":[0,0,0,0,0,0,0,0,0,0,0,0,0],"sum_hessian":[4.247E3,4.234E3,1.3E1,4.168E3,6.6E1,3E0,1E1,4.08E3,8.8E1,2.1E1,4.5E1,5E0,5E0],"tree_param":{"num_deleted":"0","num_feature":"1","num_nodes":"13","size_leaf_vector":"1"}},{"base_weights":[1.211544E-3,-8.3916826E-4,4.3552932E-1,-1.9360172E0,3.2696878E-3,5.3376686E-2,-7.0535076E-1,-5.4540536E-3,1.1007469E-2],"categories":[],"categories_nodes":[],"categories_segments":[],"categories_sizes":[],"default_left":[0,0,0,0,0,0,0,0,0],"id":48,"left_children":[1,3,-1,5,7,-1,-1,-1,-1],"loss_changes":[3.7933914E1,3.377579E1,0E0,1.175168E2,2.617937E1,0E0,0E0,0E0,0E0],"parents":[2147483647,0,0,1,1,3,3,4,4],"right_children":[2,4,-1,6,8,-1,-1,-1,-1],"split_conditions":[6.35E1,3.2E1,4.3552932E-1,3.15E1,4.6E1,5.3376686E-2,-7.0535076E-1,-5.4540536E-3,1.1007469E-2],"split_indices":[0,0,0,0,0,0,0,0,0],"split_type":[0,0,0,0,0,0,0,0,0],"sum_hessian":[4.247E3,4.246E3,1E0,8E0,4.238E3,6E0,2E0,2.75E3,1.488E3],"tree_param":{"num_deleted":"0","num_feature":"1","num_nodes":"9","size_leaf_vector":"1"}},{"base_weights":[1.040751E-3,-9.074511E-4,4.1375276E-1,-2.7599618E-1,2.5572293E-2,-6.991625E-3,-7.944247E-2,9.4685666E-2,1.917846E-4],"categories":[],"categories_nodes":[],"categories_segments":[],"categories_sizes":[],"default_left":[0,0,0,0,0,0,0,0,0],"id":49,"left_children":[1,3,-1,5,7,-1,-1,-1,-1],"loss_changes":[3.4237164E1,3.094339E1,0E0,3.979493E1,8.4444016E1,0E0,0E0,0E0,0E0],"parents":[2147483647,0,0,1,1,3,3,4,4],"right_children":[2,4,-1,6,8,-1,-1,-1,-1],"split_conditions":[6.35E1,3.75E1,4.1375276E-1,3.7E1,3.8E1,-6.991625E-3,-7.944247E-2,9.4685666E-2,1.917846E-4],"split_indices":[0,0,0,0,0,0,0,0,0],"split_type":[0,0,0,0,0,0,0,0,0],"sum_hessian":[4.247E3,4.246E3,1E0,3.72E2,3.874E3,2.67E2,1.05E2,9.6E1,3.778E3],"tree_param":{"num_deleted":"0","num_feature":"1","num_nodes":"9","size_leaf_vector":"1"}},{"base_weights":[1.0370314E-3,-3.9202906E-3,1.5005529E0,9.043032E-3,-8.104901E-1,6.0640126E-1,-2.9530093E-1,-1.0051989E-3,1.3626584E-1,-2.1138786E-1,-1.6951097E-2,-2.759409E-1,2.218024E-1],"categories":[],"categories_nodes":[],"categories_segments":[],"categories_sizes":[],"default_left":[0,0,0,0,0,0,0,0,0,0,0,0,0],"id":50,"left_children":[1,3,5,7,9,-1,11,-1,-1,-1,-1,-1,-1],"loss_changes":[3.1583742E1,4.428775E1,1.16524994E2,1.0777116E2,5.561647E1,0E0,7.4244576E1,0E0,0E0,0E0,0E0,0E0,0E0],"parents":[2147483647,0,0,1,1,2,2,3,3,4,4,6,6],"right_children":[2,4,6,8,10,-1,12,-1,-1,-1,-1,-1,-1],"split_conditions":[5.75E1,5.5E1,5.8E1,5.4E1,5.55E1,6.0640126E-1,5.9E1,-1.0051989E-3,1.3626584E-1,-2.1138786E-1,-1.6951097E-2,-2.759409E-1,2.218024E-1],"split_indices":[0,0,0,0,0,0,0,0,0,0,0,0,0],"split_type":[0,0,0,0,0,0,0,0,0,0,0,0,0],"sum_hessian":[4.247E3,4.234E3,1.3E1,4.168E3,6.6E1,3E0,1E1,4.111E3,5.7E1,2.1E1,4.5E1,5E0,5E0],"tree_param":{"num_deleted":"0","num_feature":"1","num_nodes":"13","size_leaf_vector":"1"}},{"base_weights":[1.0432636E-3,-1.8077483E0,4.882434E-3,4.9487004E-1,-6.577942E-1,3.0813909E-3,3.8197517E-1,2.7961475E-1,-3.5470072E-2,1.4407346E-3,-4.70695E-2],"categories":[],"categories_nodes":[],"categories_segments":[],"categories_sizes":[],"default_left":[0,0,0,0,0,0,0,0,0,0,0],"id":51,"left_children":[1,3,5,7,-1,9,-1,-1,-1,-1,-1],"loss_changes":[2.9508038E1,1.0211066E2,2.9120182E1,1.4677482E1,0E0,2.2753128E1,0E0,0E0,0E0,0E0,0E0],"parents":[2147483647,0,0,1,1,2,2,3,3,5,5],"right_children":[2,4,6,8,-1,10,-1,-1,-1,-1,-1],"split_conditions":[3.2E1,3.15E1,6.35E1,3.05E1,-6.577942E-1,5.45E1,3.8197517E-1,2.7961475E-1,-3.5470072E-2,1.4407346E-3,-4.70695E-2],"split_indices":[0,0,0,0,0,0,0,0,0,0,0],"split_type":[0,0,0,0,0,0,0,0,0,0,0],"sum_hessian":[4.247E3,8E0,4.239E3,6E0,2E0,4.238E3,1E0,1E0,5E0,4.14E3,9.8E1],"tree_param":{"num_deleted":"0","num_feature":"1","num_nodes":"11","size_leaf_vector":"1"}},{"base_weights":[9.195535E-4,-3.7156588E-3,1.4030056E0,9.311819E-3,-6.2494886E-1,5.644515E-1,-2.6690742E-1,-1.0188887E-3,2.1192484E-1,-1.1107848E-1,1.6505366E-2,-2.4902344E-1,2.0009041E-1],"categories":[],"categories_nodes":[],"categories_segments":[],"categories_sizes":[],"default_left":[0,0,0,0,0,0,0,0,0,0,0,0,0],"id":52,"left_children":[1,3,5,7,9,-1,11,-1,-1,-1,-1,-1,-1],"loss_changes":[2.7612825E1,3.428011E1,1.00667885E2,1.7073326E2,3.3574947E1,0E0,6.0445675E1,0E0,0E0,0E0,0E0,0E0,0E0],"parents":[2147483647,0,0,1,1,2,2,3,3,4,4,6,6],"right_children":[2,4,6,8,10,-1,12,-1,-1,-1,-1,-1,-1],"split_conditions":[5.75E1,5.45E1,5.8E1,5.4E1,5.6E1,5.644515E-1,5.9E1,-1.0188887E-3,2.1192484E-1,-1.1107848E-1,1.6505366E-2,-2.4902344E-1,2.0009041E-1],"split_indices":[0,0,0,0,0,0,0,0,0,0,0,0,0],"split_type":[0,0,0,0,0,0,0,0,0,0,0,0,0],"sum_hessian":[4.247E3,4.234E3,1.3E1,4.148E3,8.6E1,3E0,1E1,4.111E3,3.7E1,5.3E1,3.3E1,5E0,5E0],"tree_param":{"num_deleted":"0","num_feature":"1","num_nodes":"13","size_leaf_vector":"1"}},{"base_weights":[9.759963E-4,-7.1550745E-1,9.334737E-3,2.656849E-1,-8.411159E-1,1.8360032E-1,-7.2335446E-4,-2.5452444E-1,-4.8808802E-2,-1.1981334E-1,9.973143E-4],"categories":[],"categories_nodes":[],"categories_segments":[],"categories_sizes":[],"default_left":[0,0,0,0,0,0,0,0,0,0,0],"id":53,"left_children":[1,3,5,-1,7,-1,9,-1,-1,-1,-1],"loss_changes":[2.5447525E1,2.2990942E1,7.716709E1,0E0,2.7634731E1,0E0,5.3524162E1,0E0,0E0,0E0,0E0],"parents":[2147483647,0,0,1,1,2,2,4,4,6,6],"right_children":[2,4,6,-1,8,-1,10,-1,-1,-1,-1],"split_conditions":[3.4E1,3.05E1,3.45E1,2.656849E-1,3.2E1,1.8360032E-1,3.5E1,-2.5452444E-1,-4.8808802E-2,-1.1981334E-1,9.973143E-4],"split_indices":[0,0,0,0,0,0,0,0,0,0,0],"split_type":[0,0,0,0,0,0,0,0,0,0,0],"sum_hessian":[4.247E3,4.8E1,4.199E3,1E0,4.7E1,2.2E1,4.177E3,7E0,4E1,3.6E1,4.141E3],"tree_param":{"num_deleted":"0","num_feature":"1","num_nodes":"11","size_leaf_vector":"1"}},{"base_weights":[8.864017E-4,-7.749018E-4,3.5282212E-1,-7.779648E-2,7.065562E-2,-3.4723121E-3,-4.6402663E-2,5.3913683E-2,2.0005314E-3],"categories":[],"categories_nodes":[],"categories_segments":[],"categories_sizes":[],"default_left":[0,0,0,0,0,0,0,0,0],"id":54,"left_children":[1,3,-1,5,7,-1,-1,-1,-1],"loss_changes":[2.48959E1,2.3371183E1,0E0,3.3988335E1,5.2287315E1,0E0,0E0,0E0,0E0],"parents":[2147483647,0,0,1,1,3,3,4,4],"right_children":[2,4,-1,6,8,-1,-1,-1,-1],"split_conditions":[6.35E1,4.4E1,3.5282212E-1,4.35E1,4.45E1,-3.4723121E-3,-4.6402663E-2,5.3913683E-2,2.0005314E-3],"split_indices":[0,0,0,0,0,0,0,0,0],"split_type":[0,0,0,0,0,0,0,0,0],"sum_hessian":[4.247E3,4.246E3,1E0,2.043E3,2.203E3,1.839E3,2.04E2,2.14E2,1.989E3],"tree_param":{"num_deleted":"0","num_feature":"1","num_nodes":"9","size_leaf_vector":"1"}},{"base_weights":[8.8259234E-4,-3.3186236E-3,1.2716874E0,8.4914835E-3,-5.665004E-1,5.2189296E-1,-2.7928126E-1,-9.0827415E-4,1.9099842E-1,-1.00470066E-1,1.4612647E-2,-2.2852103E-1,1.7731947E-1],"categories":[],"categories_nodes":[],"categories_segments":[],"categories_sizes":[],"default_left":[0,0,0,0,0,0,0,0,0,0,0,0,0],"id":55,"left_children":[1,3,5,7,9,-1,11,-1,-1,-1,-1,-1,-1],"loss_changes":[2.2683973E1,2.8172804E1,8.716623E1,1.3866556E2,2.7314592E1,0E0,4.9340454E1,0E0,0E0,0E0,0E0,0E0,0E0],"parents":[2147483647,0,0,1,1,2,2,3,3,4,4,6,6],"right_children":[2,4,6,8,10,-1,12,-1,-1,-1,-1,-1,-1],"split_conditions":[5.75E1,5.45E1,5.8E1,5.4E1,5.6E1,5.2189296E-1,5.9E1,-9.0827415E-4,1.9099842E-1,-1.00470066E-1,1.4612647E-2,-2.2852103E-1,1.7731947E-1],"split_indices":[0,0,0,0,0,0,0,0,0,0,0,0,0],"split_type":[0,0,0,0,0,0,0,0,0,0,0,0,0],"sum_hessian":[4.247E3,4.234E3,1.3E1,4.148E3,8.6E1,3E0,1E1,4.111E3,3.7E1,5.3E1,3.3E1,5E0,5E0],"tree_param":{"num_deleted":"0","num_feature":"1","num_nodes":"13","size_leaf_vector":"1"}},{"base_weights":[9.293134E-4,-2.310717E-1,2.3255281E-2,-4.0069394E-2,-7.118033E-2,8.5707456E-2,1.8521788E-3,-3.454988E-2,5.289755E-2,-6.0229745E-2,3.064461E-3],"categories":[],"categories_nodes":[],"categories_segments":[],"categories_sizes":[],"default_left":[0,0,0,0,0,0,0,0,0,0,0],"id":56,"left_children":[1,3,5,7,-1,-1,9,-1,-1,-1,-1],"loss_changes":[2.2008514E1,3.422065E1,6.9170746E1,4.6761974E1,0E0,0E0,6.577132E1,0E0,0E0,0E0,0E0],"parents":[2147483647,0,0,1,1,2,2,3,3,6,6],"right_children":[2,4,6,8,-1,-1,10,-1,-1,-1,-1],"split_conditions":[3.75E1,3.7E1,3.8E1,3.6E1,-7.118033E-2,8.5707456E-2,3.9E1,-3.454988E-2,5.289755E-2,-6.0229745E-2,3.064461E-3],"split_indices":[0,0,0,0,0,0,0,0,0,0,0],"split_type":[0,0,0,0,0,0,0,0,0,0,0],"sum_hessian":[4.247E3,3.72E2,3.875E3,2.67E2,1.05E2,9.6E1,3.779E3,1.74E2,9.3E1,1.71E2,3.608E3],"tree_param":{"num_deleted":"0","num_feature":"1","num_nodes":"11","size_leaf_vector":"1"}},{"base_weights":[8.316507E-4,-7.0411566E-4,3.261616E-1,-1.4689822E0,2.4134137E-3,6.583503E-2,-5.9430975E-1,-4.4919346E-3,8.986137E-3],"categories":[],"categories_nodes":[],"categories_segments":[],"categories_sizes":[],"default_left":[0,0,0,0,0,0,0,0,0],"id":57,"left_children":[1,3,-1,5,7,-1,-1,-1,-1],"loss_changes":[2.1275442E1,1.9443766E1,0E0,8.957401E1,1.7549906E1,0E0,0E0,0E0,0E0],"parents":[2147483647,0,0,1,1,3,3,4,4],"right_children":[2,4,-1,6,8,-1,-1,-1,-1],"split_conditions":[6.35E1,3.2E1,3.261616E-1,3.15E1,4.6E1,6.583503E-2,-5.9430975E-1,-4.4919346E-3,8.986137E-3],"split_indices":[0,0,0,0,0,0,0,0,0],"split_type":[0,0,0,0,0,0,0,0,0],"sum_hessian":[4.247E3,4.246E3,1E0,8E0,4.238E3,6E0,2E0,2.75E3,1.488E3],"tree_param":{"num_deleted":"0","num_feature":"1","num_nodes":"9","size_leaf_vector":"1"}},{"base_weights":[7.02611E-4,-7.56387E-4,3.0985337E-1,-9.5414233E-1,3.5271526E-3,2.5105533E-1,-1.2861006E-1,-1.8217828E-3,1.71427E-2],"categories":[],"categories_nodes":[],"categories_segments":[],"categories_sizes":[],"default_left":[0,0,0,0,0,0,0,0,0],"id":58,"left_children":[1,3,-1,5,7,-1,-1,-1,-1],"loss_changes":[1.9202154E1,1.7347546E1,0E0,2.5081383E1,1.5443113E1,0E0,0E0,0E0,0E0],"parents":[2147483647,0,0,1,1,3,3,4,4],"right_children":[2,4,-1,6,8,-1,-1,-1,-1],"split_conditions":[6.35E1,3.3E1,3.0985337E-1,3.05E1,5E1,2.5105533E-1,-1.2861006E-1,-1.8217828E-3,1.71427E-2],"split_indices":[0,0,0,0,0,0,0,0,0],"split_type":[0,0,0,0,0,0,0,0,0],"sum_hessian":[4.247E3,4.246E3,1E0,1.8E1,4.228E3,1E0,1.7E1,3.744E3,4.84E2],"tree_param":{"num_deleted":"0","num_feature":"1","num_nodes":"9","size_leaf_vector":"1"}},{"base_weights":[7.391093E-4,-6.4692216E-4,2.9436073E-1,-1.1448582E-1,3.1349007E-2,5.8224974E-3,-3.6330562E-2,8.393833E-2,-4.5339213E-4],"categories":[],"categories_nodes":[],"categories_segments":[],"categories_sizes":[],"default_left":[0,0,0,0,0,0,0,0,0],"id":59,"left_children":[1,3,-1,5,7,-1,-1,-1,-1],"loss_changes":[1.7329105E1,1.5472782E1,0E0,4.0072792E1,9.615001E1,0E0,0E0,0E0,0E0],"parents":[2147483647,0,0,1,1,3,3,4,4],"right_children":[2,4,-1,6,8,-1,-1,-1,-1],"split_conditions":[6.35E1,4.05E1,2.9436073E-1,3.85E1,4.1E1,5.8224974E-3,-3.6330562E-2,8.393833E-2,-4.5339213E-4],"split_indices":[0,0,0,0,0,0,0,0,0],"split_type":[0,0,0,0,0,0,0,0,0],"sum_hessian":[4.247E3,4.246E3,1E0,9.31E2,3.315E3,5.5E2,3.81E2,1.4E2,3.175E3],"tree_param":{"num_deleted":"0","num_feature":"1","num_nodes":"9","size_leaf_vector":"1"}},{"base_weights":[7.475792E-4,-2.842943E-3,1.0868272E0,7.2186654E-3,-6.288728E-1,4.805955E-1,-3.6438543E-1,-1.1121671E-3,8.481141E-2,-1.6955258E-1,-1.0506331E-2,-2.1187274E-1,1.4506875E-1],"categories":[],"categories_nodes":[],"categories_segments":[],"categories_sizes":[],"default_left":[0,0,0,0,0,0,0,0,0,0,0,0,0],"id":60,"left_children":[1,3,5,7,9,-1,11,-1,-1,-1,-1,-1,-1],"loss_changes":[1.656856E1,2.6680243E1,7.7312645E1,6.430502E1,3.72563E1,0E0,3.8100452E1,0E0,0E0,0E0,0E0,0E0,0E0],"parents":[2147483647,0,0,1,1,2,2,3,3,4,4,6,6],"right_children":[2,4,6,8,10,-1,12,-1,-1,-1,-1,-1,-1],"split_conditions":[5.75E1,5.5E1,5.8E1,5.35E1,5.55E1,4.805955E-1,5.9E1,-1.1121671E-3,8.481141E-2,-1.6955258E-1,-1.0506331E-2,-2.1187274E-1,1.4506875E-1],"split_indices":[0,0,0,0,0,0,0,0,0,0,0,0,0],"split_type":[0,0,0,0,0,0,0,0,0,0,0,0,0],"sum_hessian":[4.247E3,4.234E3,1.3E1,4.168E3,6.6E1,3E0,1E1,4.08E3,8.8E1,2.1E1,4.5E1,5E0,5E0],"tree_param":{"num_deleted":"0","num_feature":"1","num_nodes":"13","size_leaf_vector":"1"}},{"base_weights":[7.4917224E-4,-1.9936995E-1,2.0007089E-2,-2.4464978E-2,-6.397017E-2,5.8021146E-1,-7.114757E-3,-2.9434552E-2,4.7823247E-2,7.738428E-2,3.46929E-2,-1.3118228E-1,2.5423577E-3],"categories":[],"categories_nodes":[],"categories_segments":[],"categories_sizes":[],"default_left":[0,0,0,0,0,0,0,0,0,0,0,0,0],"id":61,"left_children":[1,3,5,7,-1,9,11,-1,-1,-1,-1,-1,-1],"loss_changes":[1.6375261E1,2.87114E1,5.8895206E1,3.6499863E1,0E0,7.8171005E0,1.5702463E2,0E0,0E0,0E0,0E0,0E0,0E0],"parents":[2147483647,0,0,1,1,2,2,3,3,5,5,6,6],"right_children":[2,4,6,8,-1,10,12,-1,-1,-1,-1,-1,-1],"split_conditions":[3.75E1,3.7E1,3.85E1,3.6E1,-6.397017E-2,3.8E1,3.9E1,-2.9434552E-2,4.7823247E-2,7.738428E-2,3.46929E-2,-1.3118228E-1,2.5423577E-3],"split_indices":[0,0,0,0,0,0,0,0,0,0,0,0,0],"split_type":[0,0,0,0,0,0,0,0,0,0,0,0,0],"sum_hessian":[4.247E3,3.72E2,3.875E3,2.67E2,1.05E2,1.78E2,3.697E3,1.74E2,9.3E1,9.6E1,8.2E1,8.9E1,3.608E3],"tree_param":{"num_deleted":"0","num_feature":"1","num_nodes":"13","size_leaf_vector":"1"}},{"base_weights":[6.610202E-4,-1.2866927E0,3.3934547E-3,6.791104E-1,-5.444669E-1,2.109695E-3,2.7226257E-1,2.3973875E-1,-6.833712E-4,4.5456798E-4,-1.4712666E-1],"categories":[],"categories_nodes":[],"categories_segments":[],"categories_sizes":[],"default_left":[0,0,0,0,0,0,0,0,0,0,0],"id":62,"left_children":[1,3,5,7,-1,9,-1,-1,-1,-1,-1],"loss_changes":[1.4947174E1,7.72614E1,1.4795423E1,8.266878E0,0E0,1.5220978E1,0E0,0E0,0E0,0E0,0E0],"parents":[2147483647,0,0,1,1,2,2,3,3,5,5],"right_children":[2,4,6,8,-1,10,-1,-1,-1,-1,-1],"split_conditions":[3.2E1,3.15E1,6.35E1,3.05E1,-5.444669E-1,5.85E1,2.7226257E-1,2.3973875E-1,-6.833712E-4,4.5456798E-4,-1.4712666E-1],"split_indices":[0,0,0,0,0,0,0,0,0,0,0],"split_type":[0,0,0,0,0,0,0,0,0,0,0],"sum_hessian":[4.247E3,8E0,4.239E3,6E0,2E0,4.238E3,1E0,1E0,5E0,4.232E3,6E0],"tree_param":{"num_deleted":"0","num_feature":"1","num_nodes":"11","size_leaf_vector":"1"}},{"base_weights":[5.532011E-4,-2.9120587E-3,1.0487548E0,7.833769E-3,-5.153434E-1,4.443263E-1,-2.8095314E-1,-6.97907E-4,1.6105329E-1,-9.00377E-2,1.1133778E-2,-1.8954697E-1,1.3803889E-1],"categories":[],"categories_nodes":[],"categories_segments":[],"categories_sizes":[],"default_left":[0,0,0,0,0,0,0,0,0,0,0,0,0],"id":63,"left_children":[1,3,5,7,9,-1,11,-1,-1,-1,-1,-1,-1],"loss_changes":[1.5433027E1,2.332406E1,6.444021E1,9.851067E1,2.1092766E1,0E0,3.212139E1,0E0,0E0,0E0,0E0,0E0,0E0],"parents":[2147483647,0,0,1,1,2,2,3,3,4,4,6,6],"right_children":[2,4,6,8,10,-1,12,-1,-1,-1,-1,-1,-1],"split_conditions":[5.75E1,5.45E1,5.8E1,5.4E1,5.6E1,4.443263E-1,5.9E1,-6.97907E-4,1.6105329E-1,-9.00377E-2,1.1133778E-2,-1.8954697E-1,1.3803889E-1],"split_indices":[0,0,0,0,0,0,0,0,0,0,0,0,0],"split_type":[0,0,0,0,0,0,0,0,0,0,0,0,0],"sum_hessian":[4.247E3,4.234E3,1.3E1,4.148E3,8.6E1,3E0,1E1,4.111E3,3.7E1,5.3E1,3.3E1,5E0,5E0],"tree_param":{"num_deleted":"0","num_feature":"1","num_nodes":"13","size_leaf_vector":"1"}},{"base_weights":[6.097086E-4,-3.792811E-3,7.15657E-1,5.9193736E-3,-7.3990744E-1,1.2190161E0,-5.6927776E-1,-9.5419644E-4,7.14816E-2,-1.4505936E-1,-2.5828967E-2,3.846107E-2,2.5944808E-1,-4.0487877E-1,1.2653567E-1],"categories":[],"categories_nodes":[],"categories_segments":[],"categories_sizes":[],"default_left":[0,0,0,0,0,0,0,0,0,0,0,0,0,0,0],"id":64,"left_children":[1,3,5,7,9,11,13,-1,-1,-1,-1,-1,-1,-1,-1],"loss_changes":[1.337546E1,3.0195793E1,1.751033E1,4.5701103E1,1.8450678E1,2.0808344E1,5.619219E1,0E0,0E0,0E0,0E0,0E0,0E0,0E0,0E0],"parents":[2147483647,0,0,1,1,2,2,3,3,4,4,5,5,6,6],"right_children":[2,4,6,8,10,12,14,-1,-1,-1,-1,-1,-1,-1,-1],"split_conditions":[5.7E1,5.5E1,5.85E1,5.35E1,5.55E1,5.75E1,5.9E1,-9.5419644E-4,7.14816E-2,-1.4505936E-1,-2.5828967E-2,3.846107E-2,2.5944808E-1,-4.0487877E-1,1.2653567E-1],"split_indices":[0,0,0,0,0,0,0,0,0,0,0,0,0,0,0],"split_type":[0,0,0,0,0,0,0,0,0,0,0,0,0,0,0],"sum_hessian":[4.247E3,4.222E3,2.5E1,4.168E3,5.4E1,1.8E1,7E0,4.08E3,8.8E1,2.1E1,3.3E1,1.2E1,6E0,2E0,5E0],"tree_param":{"num_deleted":"0","num_feature":"1","num_nodes":"15","size_leaf_vector":"1"}},{"base_weights":[5.292542E-4,-1.1904902E0,3.057237E-3,6.467656E-1,-5.080591E-1,1.9000396E-3,2.4542084E-1,2.2783442E-1,-4.8882165E-4,4.0963414E-4,-1.3265066E-1],"categories":[],"categories_nodes":[],"categories_segments":[],"categories_sizes":[],"default_left":[0,0,0,0,0,0,0,0,0,0,0],"id":65,"left_children":[1,3,5,7,-1,9,-1,-1,-1,-1,-1],"loss_changes":[1.2793844E1,6.760994E1,1.2021951E1,7.4537077E0,0E0,1.2373062E1,0E0,0E0,0E0,0E0,0E0],"parents":[2147483647,0,0,1,1,2,2,3,3,5,5],"right_children":[2,4,6,8,-1,10,-1,-1,-1,-1,-1],"split_conditions":[3.2E1,3.15E1,6.35E1,3.05E1,-5.080591E-1,5.85E1,2.4542084E-1,2.2783442E-1,-4.8882165E-4,4.0963414E-4,-1.3265066E-1],"split_indices":[0,0,0,0,0,0,0,0,0,0,0],"split_type":[0,0,0,0,0,0,0,0,0,0,0],"sum_hessian":[4.247E3,8E0,4.239E3,6E0,2E0,4.238E3,1E0,1E0,5E0,4.232E3,6E0],"tree_param":{"num_deleted":"0","num_feature":"1","num_nodes":"11","size_leaf_vector":"1"}},{"base_weights":[4.3834312E-4,-1.7434448E-1,1.7258145E-2,-1.50064565E-2,-5.7555433E-2,5.2360046E-1,-7.2557917E-3,-2.5486464E-2,4.3169763E-2,6.980371E-2,3.1343248E-2,-1.1813159E-1,2.2024526E-3],"categories":[],"categories_nodes":[],"categories_segments":[],"categories_sizes":[],"default_left":[0,0,0,0,0,0,0,0,0,0,0,0,0],"id":66,"left_children":[1,3,5,7,-1,9,11,-1,-1,-1,-1,-1,-1],"loss_changes":[1.2491331E1,2.38365E1,4.811443E1,2.882505E1,0E0,6.3435364E0,1.2715163E2,0E0,0E0,0E0,0E0,0E0,0E0],"parents":[2147483647,0,0,1,1,2,2,3,3,5,5,6,6],"right_children":[2,4,6,8,-1,10,12,-1,-1,-1,-1,-1,-1],"split_conditions":[3.75E1,3.7E1,3.85E1,3.6E1,-5.7555433E-2,3.8E1,3.9E1,-2.5486464E-2,4.3169763E-2,6.980371E-2,3.1343248E-2,-1.1813159E-1,2.2024526E-3],"split_indices":[0,0,0,0,0,0,0,0,0,0,0,0,0],"split_type":[0,0,0,0,0,0,0,0,0,0,0,0,0],"sum_hessian":[4.247E3,3.72E2,3.875E3,2.67E2,1.05E2,1.78E2,3.697E3,1.74E2,9.3E1,9.6E1,8.2E1,8.9E1,3.608E3],"tree_param":{"num_deleted":"0","num_feature":"1","num_nodes":"13","size_leaf_vector":"1"}},{"base_weights":[3.8273816E-4,-2.625993E-3,9.104966E-1,6.634407E-3,-4.442211E-1,3.9134762E-1,-2.6426837E-1,-6.073406E-4,1.3815789E-1,-7.788899E-2,1.00377025E-2,-1.6900979E-1,1.2056059E-1],"categories":[],"categories_nodes":[],"categories_segments":[],"categories_sizes":[],"default_left":[0,0,0,0,0,0,0,0,0,0,0,0,0],"id":67,"left_children":[1,3,5,7,9,-1,11,-1,-1,-1,-1,-1,-1],"loss_changes":[1.1634637E1,1.7321335E1,5.0423336E1,7.250196E1,1.5934799E1,0E0,2.5091282E1,0E0,0E0,0E0,0E0,0E0,0E0],"parents":[2147483647,0,0,1,1,2,2,3,3,4,4,6,6],"right_children":[2,4,6,8,10,-1,12,-1,-1,-1,-1,-1,-1],"split_conditions":[5.75E1,5.45E1,5.8E1,5.4E1,5.6E1,3.9134762E-1,5.9E1,-6.073406E-4,1.3815789E-1,-7.788899E-2,1.00377025E-2,-1.6900979E-1,1.2056059E-1],"split_indices":[0,0,0,0,0,0,0,0,0,0,0,0,0],"split_type":[0,0,0,0,0,0,0,0,0,0,0,0,0],"sum_hessian":[4.247E3,4.234E3,1.3E1,4.148E3,8.6E1,3E0,1E1,4.111E3,3.7E1,5.3E1,3.3E1,5E0,5E0],"tree_param":{"num_deleted":"0","num_feature":"1","num_nodes":"13","size_leaf_vector":"1"}},{"base_weights":[4.4082876E-4,-3.698211E-2,6.973576E-2,6.3195324E-4,-2.060968E-1,4.8867E-1,-3.1047707E-2,-5.0616576E-3,4.878476E-2,-5.2550543E-2,-3.0524998E-3,2.8520988E-3,9.268625E-2,-7.3043145E-2,8.250545E-3],"categories":[],"categories_nodes":[],"categories_segments":[],"categories_sizes":[],"default_left":[0,0,0,0,0,0,0,0,0,0,0,0,0,0,0],"id":68,"left_children":[1,3,5,7,9,11,13,-1,-1,-1,-1,-1,-1,-1,-1],"loss_changes":[1.1018578E1,1.755038E1,6.2925426E1,5.640489E1,2.813569E1,5.8245743E1,9.551976E1,0E0,0E0,0E0,0E0,0E0,0E0,0E0,0E0],"parents":[2147483647,0,0,1,1,2,2,3,3,4,4,5,5,6,6],"right_children":[2,4,6,8,10,12,14,-1,-1,-1,-1,-1,-1,-1,-1],"split_conditions":[4.6E1,4.45E1,4.7E1,4.4E1,4.5E1,4.65E1,4.75E1,-5.0616576E-3,4.878476E-2,-5.2550543E-2,-3.0524998E-3,2.8520988E-3,9.268625E-2,-7.3043145E-2,8.250545E-3],"split_indices":[0,0,0,0,0,0,0,0,0,0,0,0,0,0,0],"split_type":[0,0,0,0,0,0,0,0,0,0,0,0,0,0,0],"sum_hessian":[4.247E3,2.758E3,1.489E3,2.257E3,5.01E2,2.88E2,1.201E3,2.043E3,2.14E2,1.77E2,3.24E2,1.41E2,1.47E2,1.67E2,1.034E3],"tree_param":{"num_deleted":"0","num_feature":"1","num_nodes":"15","size_leaf_vector":"1"}},{"base_weights":[4.011543E-4,-1.0749391E0,2.6836216E-3,6.412705E-1,-4.7211152E-1,4.399407E-1,-3.9104135E-3,2.1800041E-1,2.1480878E-3,-3.101161E-2,1.7578706E-1,-9.8239675E-2,4.831234E-4],"categories":[],"categories_nodes":[],"categories_segments":[],"categories_sizes":[],"default_left":[0,0,0,0,0,0,0,0,0,0,0,0,0],"id":69,"left_children":[1,3,5,7,-1,9,11,-1,-1,-1,-1,-1,-1],"loss_changes":[1.0429298E1,5.9345932E1,1.2226863E1,6.6290092E0,0E0,6.2822044E1,3.574161E1,0E0,0E0,0E0,0E0,0E0,0E0],"parents":[2147483647,0,0,1,1,2,2,3,3,5,5,6,6],"right_children":[2,4,6,8,-1,10,12,-1,-1,-1,-1,-1,-1],"split_conditions":[3.2E1,3.15E1,3.45E1,3.05E1,-4.7211152E-1,3.4E1,3.5E1,2.1800041E-1,2.1480878E-3,-3.101161E-2,1.7578706E-1,-9.8239675E-2,4.831234E-4],"split_indices":[0,0,0,0,0,0,0,0,0,0,0,0,0],"split_type":[0,0,0,0,0,0,0,0,0,0,0,0,0],"sum_hessian":[4.247E3,8E0,4.239E3,6E0,2E0,6.2E1,4.177E3,1E0,5E0,4E1,2.2E1,3.6E1,4.141E3],"tree_param":{"num_deleted":"0","num_feature":"1","num_nodes":"13","size_leaf_vector":"1"}},{"base_weights":[3.11495E-4,-7.5542054E-4,2.2657509E-1,1.2947853E-3,-1.2427794E0,-2.4506284E-4,2.2670849E-1,-3.5850498E-1,4.1113894E-2],"categories":[],"categories_nodes":[],"categories_segments":[],"categories_sizes":[],"default_left":[0,0,0,0,0,0,0,0,0],"id":70,"left_children":[1,3,-1,5,7,-1,-1,-1,-1],"loss_changes":[1.0269265E1,1.0816189E1,0E0,3.599604E1,2.8591425E1,0E0,0E0,0E0,0E0],"parents":[2147483647,0,0,1,1,3,3,4,4],"right_children":[2,4,-1,6,8,-1,-1,-1,-1],"split_conditions":[6.35E1,5.85E1,2.2657509E-1,5.75E1,5.9E1,-2.4506284E-4,2.2670849E-1,-3.5850498E-1,4.1113894E-2],"split_indices":[0,0,0,0,0,0,0,0,0],"split_type":[0,0,0,0,0,0,0,0,0],"sum_hessian":[4.247E3,4.246E3,1E0,4.24E3,6E0,4.234E3,6E0,2E0,4E0],"tree_param":{"num_deleted":"0","num_feature":"1","num_nodes":"9","size_leaf_vector":"1"}},{"base_weights":[3.113585E-4,2.5415601E-2,-9.32365E-2,-2.3102941E-2,1.163468E-1,-1.1405957E-1,9.010471E-2,1.1913831E-3,-6.580613E-2,6.132115E-2,-9.833641E-3],"categories":[],"categories_nodes":[],"categories_segments":[],"categories_sizes":[],"default_left":[0,0,0,0,0,0,0,0,0,0,0],"id":71,"left_children":[1,3,5,7,-1,-1,9,-1,-1,-1,-1],"loss_changes":[9.978577E0,1.8500261E2,1.727324E2,7.146853E1,0E0,0E0,7.556863E1,0E0,0E0,0E0,0E0],"parents":[2147483647,0,0,1,1,2,2,3,3,6,6],"right_children":[2,4,6,8,-1,-1,10,-1,-1,-1,-1],"split_conditions":[4.8E1,4.75E1,4.85E1,4.7E1,1.163468E-1,-1.1405957E-1,4.95E1,1.1913831E-3,-6.580613E-2,6.132115E-2,-9.833641E-3],"split_indices":[0,0,0,0,0,0,0,0,0,0,0],"split_type":[0,0,0,0,0,0,0,0,0,0,0],"sum_hessian":[4.247E3,3.349E3,8.98E2,3.213E3,1.36E2,1.33E2,7.65E2,3.046E3,1.67E2,2.02E2,5.63E2],"tree_param":{"num_deleted":"0","num_feature":"1","num_nodes":"11","size_leaf_vector":"1"}},{"base_weights":[2.7859953E-4,-1.727411E-2,1.3618511E-1,1.3869341E-2,-1.4697595E-1,3.1823903E-1,-6.783246E-2,-8.485665E-4,9.277267E-2,8.537012E-3,1.8430744E-1,-1.8590444E-1,1.9985007E-2],"categories":[],"categories_nodes":[],"categories_segments":[],"categories_sizes":[],"default_left":[0,0,0,0,0,0,0,0,0,0,0,0,0],"id":72,"left_children":[1,3,5,7,-1,9,11,-1,-1,-1,-1,-1,-1],"loss_changes":[1.0136073E1,1.7024123E2,1.8072697E1,7.5289795E1,0E0,9.109995E1,1.1065105E2,0E0,0E0,0E0,0E0,0E0,0E0],"parents":[2147483647,0,0,1,1,2,2,3,3,5,5,6,6],"right_children":[2,4,6,8,-1,10,12,-1,-1,-1,-1,-1,-1],"split_conditions":[5E1,4.95E1,5.25E1,4.9E1,-1.4697595E-1,5.2E1,5.3E1,-8.485665E-4,9.277267E-2,8.537012E-3,1.8430744E-1,-1.8590444E-1,1.9985007E-2],"split_indices":[0,0,0,0,0,0,0,0,0,0,0,0,0],"split_type":[0,0,0,0,0,0,0,0,0,0,0,0,0],"sum_hessian":[4.247E3,3.762E3,4.85E2,3.684E3,7.8E1,2.56E2,2.29E2,3.597E3,8.7E1,2.23E2,3.3E1,2.9E1,2E2],"tree_param":{"num_deleted":"0","num_feature":"1","num_nodes":"13","size_leaf_vector":"1"}},{"base_weights":[2.4266791E-4,-7.6852454E-4,2.1473885E-1,1.1657323E-3,-1.172542E0,-2.2442914E-4,2.0640635E-1,-3.3528137E-1,3.7012942E-2],"categories":[],"categories_nodes":[],"categories_segments":[],"categories_sizes":[],"default_left":[0,0,0,0,0,0,0,0,0],"id":73,"left_children":[1,3,-1,5,7,-1,-1,-1,-1],"loss_changes":[9.2248125E0,9.627238E0,0E0,2.9838074E1,2.4785074E1,0E0,0E0,0E0,0E0],"parents":[2147483647,0,0,1,1,3,3,4,4],"right_children":[2,4,-1,6,8,-1,-1,-1,-1],"split_conditions":[6.35E1,5.85E1,2.1473885E-1,5.75E1,5.9E1,-2.2442914E-4,2.0640635E-1,-3.3528137E-1,3.7012942E-2],"split_indices":[0,0,0,0,0,0,0,0,0],"split_type":[0,0,0,0,0,0,0,0,0],"sum_hessian":[4.247E3,4.246E3,1E0,4.24E3,6E0,4.234E3,6E0,2E0,4E0],"tree_param":{"num_deleted":"0","num_feature":"1","num_nodes":"9","size_leaf_vector":"1"}},{"base_weights":[2.4791402E-4,-9.9532914E-1,2.3611088E-3,6.087014E-1,-4.4062907E-1,3.9836878E-1,-3.61085E-3,-6.78037E-2,1.2590043E-1,-2.7973667E-2,1.5898451E-1,-8.866895E-2,4.2784592E-4],"categories":[],"categories_nodes":[],"categories_segments":[],"categories_sizes":[],"default_left":[0,0,0,0,0,0,0,0,0,0,0,0,0],"id":74,"left_children":[1,3,5,7,-1,9,11,-1,-1,-1,-1,-1,-1],"loss_changes":[8.939497E0,5.19237E1,1.00287895E1,6.7110386E0,0E0,5.1345367E1,2.9111422E1,0E0,0E0,0E0,0E0,0E0,0E0],"parents":[2147483647,0,0,1,1,2,2,3,3,5,5,6,6],"right_children":[2,4,6,8,-1,10,12,-1,-1,-1,-1,-1,-1],"split_conditions":[3.2E1,3.15E1,3.45E1,3.1E1,-4.4062907E-1,3.4E1,3.5E1,-6.78037E-2,1.2590043E-1,-2.7973667E-2,1.5898451E-1,-8.866895E-2,4.2784592E-4],"split_indices":[0,0,0,0,0,0,0,0,0,0,0,0,0],"split_type":[0,0,0,0,0,0,0,0,0,0,0,0,0],"sum_hessian":[4.247E3,8E0,4.239E3,6E0,2E0,6.2E1,4.177E3,2E0,4E0,4E1,2.2E1,3.6E1,4.141E3],"tree_param":{"num_deleted":"0","num_feature":"1","num_nodes":"13","size_leaf_vector":"1"}},{"base_weights":[1.4371747E-4,2.3944583E-2,-8.8547096E-2,-1.9740222E-2,1.04860894E-1,-1.02674745E-1,7.5692326E-2,1.1818751E-3,-5.9200477E-2,5.127109E-2,-8.173755E-3],"categories":[],"categories_nodes":[],"categories_segments":[],"categories_sizes":[],"default_left":[0,0,0,0,0,0,0,0,0,0,0],"id":75,"left_children":[1,3,5,7,-1,-1,9,-1,-1,-1,-1],"loss_changes":[8.9693E0,1.4997427E2,1.3860417E2,5.80521E1,0E0,0E0,5.274254E1,0E0,0E0,0E0,0E0],"parents":[2147483647,0,0,1,1,2,2,3,3,6,6],"right_children":[2,4,6,8,-1,-1,10,-1,-1,-1,-1],"split_conditions":[4.8E1,4.75E1,4.85E1,4.7E1,1.04860894E-1,-1.02674745E-1,4.95E1,1.1818751E-3,-5.9200477E-2,5.127109E-2,-8.173755E-3],"split_indices":[0,0,0,0,0,0,0,0,0,0,0],"split_type":[0,0,0,0,0,0,0,0,0,0,0],"sum_hessian":[4.247E3,3.349E3,8.98E2,3.213E3,1.36E2,1.33E2,7.65E2,3.046E3,1.67E2,2.02E2,5.63E2],"tree_param":{"num_deleted":"0","num_feature":"1","num_nodes":"11","size_leaf_vector":"1"}},{"base_weights":[1.2608166E-4,-3.4150757E-2,6.359566E-2,5.254521E-2,-1.0537341E-1,4.3817165E-1,-2.651753E-2,-7.621435E-3,4.3455593E-2,-1.0752278E-1,-1.9397652E-4,2.3733166E-3,8.3284795E-2,-5.3315688E-2,5.57452E-3],"categories":[],"categories_nodes":[],"categories_segments":[],"categories_sizes":[],"default_left":[0,0,0,0,0,0,0,0,0,0,0,0,0,0,0],"id":76,"left_children":[1,3,5,7,9,11,13,-1,-1,-1,-1,-1,-1,-1,-1],"loss_changes":[9.243851E0,1.7041582E1,5.030543E1,6.1271603E1,1.5197601E2,4.725169E1,5.012612E1,0E0,0E0,0E0,0E0,0E0,0E0,0E0,0E0],"parents":[2147483647,0,0,1,1,2,2,3,3,4,4,5,5,6,6],"right_children":[2,4,6,8,10,12,14,-1,-1,-1,-1,-1,-1,-1,-1],"split_conditions":[4.6E1,4.15E1,4.7E1,4.05E1,4.2E1,4.65E1,4.75E1,-7.621435E-3,4.3455593E-2,-1.0752278E-1,-1.9397652E-4,2.3733166E-3,8.3284795E-2,-5.3315688E-2,5.57452E-3],"split_indices":[0,0,0,0,0,0,0,0,0,0,0,0,0,0,0],"split_type":[0,0,0,0,0,0,0,0,0,0,0,0,0,0,0],"sum_hessian":[4.247E3,2.758E3,1.489E3,1.244E3,1.514E3,2.88E2,1.201E3,9.31E2,3.13E2,1.45E2,1.369E3,1.41E2,1.47E2,1.67E2,1.034E3],"tree_param":{"num_deleted":"0","num_feature":"1","num_nodes":"15","size_leaf_vector":"1"}},{"base_weights":[1.05778825E-4,2.1081887E-1,-8.869858E-4,-1.5761948E0,2.0855023E-3,-4.747073E-3,-4.1082445E-1,2.5598211E-3,-8.532447E-3],"categories":[],"categories_nodes":[],"categories_segments":[],"categories_sizes":[],"default_left":[0,0,0,0,0,0,0,0,0],"id":77,"left_children":[1,-1,3,5,7,-1,-1,-1,-1],"loss_changes":[8.892213E0,0E0,1.9890219E1,3.0771421E1,8.716424E0,0E0,0E0,0E0,0E0],"parents":[2147483647,0,0,2,2,3,3,4,4],"right_children":[2,-1,4,6,8,-1,-1,-1,-1],"split_conditions":[3.05E1,2.1081887E-1,3.2E1,3.15E1,4.8E1,-4.747073E-3,-4.1082445E-1,2.5598211E-3,-8.532447E-3],"split_indices":[0,0,0,0,0,0,0,0,0],"split_type":[0,0,0,0,0,0,0,0,0],"sum_hessian":[4.247E3,1E0,4.246E3,7E0,4.239E3,5E0,2E0,3.341E3,8.98E2],"tree_param":{"num_deleted":"0","num_feature":"1","num_nodes":"9","size_leaf_vector":"1"}},{"base_weights":[4.5933964E-5,-1.6946044E-2,1.3161129E-1,1.0861902E-2,-1.313849E-1,2.3186702E-1,-2.5769442E-1,-8.149541E-4,7.8804724E-2,1.2179883E-2,1.2395512E-1,-7.100105E-2,2.6747076E-2],"categories":[],"categories_nodes":[],"categories_segments":[],"categories_sizes":[],"default_left":[0,0,0,0,0,0,0,0,0,0,0,0,0],"id":78,"left_children":[1,3,5,7,-1,9,11,-1,-1,-1,-1,-1,-1],"loss_changes":[9.498872E0,1.3572386E2,1.9028389E1,5.445382E1,0E0,4.2772728E1,2.3943972E1,0E0,0E0,0E0,0E0,0E0,0E0],"parents":[2147483647,0,0,1,1,2,2,3,3,5,5,6,6],"right_children":[2,4,6,8,-1,10,12,-1,-1,-1,-1,-1,-1],"split_conditions":[5E1,4.95E1,5.45E1,4.9E1,-1.313849E-1,5.4E1,5.6E1,-8.149541E-4,7.8804724E-2,1.2179883E-2,1.2395512E-1,-7.100105E-2,2.6747076E-2],"split_indices":[0,0,0,0,0,0,0,0,0,0,0,0,0],"split_type":[0,0,0,0,0,0,0,0,0,0,0,0,0],"sum_hessian":[4.247E3,3.762E3,4.85E2,3.684E3,7.8E1,3.86E2,9.9E1,3.597E3,8.7E1,3.49E2,3.7E1,5.3E1,4.6E1],"tree_param":{"num_deleted":"0","num_feature":"1","num_nodes":"13","size_leaf_vector":"1"}},{"base_weights":[5.1537478E-5,-9.0535823E-4,2.0319939E-1,9.2820235E-4,-1.1116518E0,-2.1670035E-4,1.8733951E-1,-3.1399867E-1,3.2767948E-2],"categories":[],"categories_nodes":[],"categories_segments":[],"categories_sizes":[],"default_left":[0,0,0,0,0,0,0,0,0],"id":79,"left_children":[1,3,-1,5,7,-1,-1,-1,-1],"loss_changes":[8.261468E0,8.650561E0,0E0,2.4583498E1,2.146503E1,0E0,0E0,0E0,0E0],"parents":[2147483647,0,0,1,1,3,3,4,4],"right_children":[2,4,-1,6,8,-1,-1,-1,-1],"split_conditions":[6.35E1,5.85E1,2.0319939E-1,5.75E1,5.9E1,-2.1670035E-4,1.8733951E-1,-3.1399867E-1,3.2767948E-2],"split_indices":[0,0,0,0,0,0,0,0,0],"split_type":[0,0,0,0,0,0,0,0,0],"sum_hessian":[4.247E3,4.246E3,1E0,4.24E3,6E0,4.234E3,6E0,2E0,4E0],"tree_param":{"num_deleted":"0","num_feature":"1","num_nodes":"9","size_leaf_vector":"1"}},{"base_weights":[7.279849E-5,-3.204951E-2,5.955292E-2,2.8338376E-3,-1.8889125E-1,2.7217144E-1,-8.052462E-2,-4.2730942E-3,4.3600395E-2,-4.765306E-2,-3.077219E-3,7.1694753E-3,9.374648E-2,-9.208732E-2,6.6586644E-3],"categories":[],"categories_nodes":[],"categories_segments":[],"categories_sizes":[],"default_left":[0,0,0,0,0,0,0,0,0,0,0,0,0,0,0],"id":80,"left_children":[1,3,5,7,9,11,13,-1,-1,-1,-1,-1,-1,-1,-1],"loss_changes":[8.118301E0,1.509548E1,4.43987E1,4.4585457E1,2.2816929E1,7.8891266E1,1.1119996E2,0E0,0E0,0E0,0E0,0E0,0E0,0E0,0E0],"parents":[2147483647,0,0,1,1,2,2,3,3,4,4,5,5,6,6],"right_children":[2,4,6,8,10,12,14,-1,-1,-1,-1,-1,-1,-1,-1],"split_conditions":[4.6E1,4.45E1,4.8E1,4.4E1,4.5E1,4.75E1,4.85E1,-4.2730942E-3,4.3600395E-2,-4.765306E-2,-3.077219E-3,7.1694753E-3,9.374648E-2,-9.208732E-2,6.6586644E-3],"split_indices":[0,0,0,0,0,0,0,0,0,0,0,0,0,0,0],"split_type":[0,0,0,0,0,0,0,0,0,0,0,0,0,0,0],"sum_hessian":[4.247E3,2.758E3,1.489E3,2.257E3,5.01E2,5.91E2,8.98E2,2.043E3,2.14E2,1.77E2,3.24E2,4.55E2,1.36E2,1.33E2,7.65E2],"tree_param":{"num_deleted":"0","num_feature":"1","num_nodes":"15","size_leaf_vector":"1"}},{"base_weights":[6.604284E-5,2.0054312E-1,-8.7834056E-4,-3.0459747E-1,5.562028E-4,-3.5158748E-5,1.927063E-1],"categories":[],"categories_nodes":[],"categories_segments":[],"categories_sizes":[],"default_left":[0,0,0,0,0,0,0],"id":81,"left_children":[1,-1,3,-1,5,-1,-1],"loss_changes":[8.046767E0,0E0,1.855396E1,0E0,7.4263544E0,0E0,0E0],"parents":[2147483647,0,0,2,2,4,4],"right_children":[2,-1,4,-1,6,-1,-1],"split_conditions":[3.05E1,2.0054312E-1,3.1E1,-3.0459747E-1,6.35E1,-3.5158748E-5,1.927063E-1],"split_indices":[0,0,0,0,0,0,0],"split_type":[0,0,0,0,0,0,0],"sum_hessian":[4.247E3,1E0,4.246E3,1E0,4.245E3,4.244E3,1E0],"tree_param":{"num_deleted":"0","num_feature":"1","num_nodes":"7","size_leaf_vector":"1"}},{"base_weights":[7.9478246E-5,1.90516E-1,-8.176822E-4,-2.893676E-1,5.4513785E-4,1.17150426E-1,-8.351876E-5],"categories":[],"categories_nodes":[],"categories_segments":[],"categories_sizes":[],"default_left":[0,0,0,0,0,0,0],"id":82,"left_children":[1,-1,3,-1,5,-1,-1],"loss_changes":[7.2620816E0,0E0,1.6745142E1,0E0,6.863808E0,0E0,0E0],"parents":[2147483647,0,0,2,2,4,4],"right_children":[2,-1,4,-1,6,-1,-1],"split_conditions":[3.05E1,1.90516E-1,3.1E1,-2.893676E-1,3.15E1,1.17150426E-1,-8.351876E-5],"split_indices":[0,0,0,0,0,0,0],"split_type":[0,0,0,0,0,0,0],"sum_hessian":[4.247E3,1E0,4.246E3,1E0,4.245E3,4E0,4.241E3],"tree_param":{"num_deleted":"0","num_feature":"1","num_nodes":"7","size_leaf_vector":"1"}},{"base_weights":[7.622166E-5,-1.3365322E-1,1.2945418E-2,1.3518996E-2,-5.0448813E-2,4.859131E-1,-9.951867E-3,-1.9577697E-2,4.030219E-2,6.429922E-2,2.9648444E-2,-1.0504695E-1,1.5998961E-3],"categories":[],"categories_nodes":[],"categories_segments":[],"categories_sizes":[],"default_left":[0,0,0,0,0,0,0,0,0,0,0,0,0],"id":83,"left_children":[1,3,5,7,-1,9,11,-1,-1,-1,-1,-1,-1],"loss_changes":[7.312498E0,2.0363892E1,4.198066E1,2.1926634E1,0E0,5.135559E0,9.987129E1,0E0,0E0,0E0,0E0,0E0,0E0],"parents":[2147483647,0,0,1,1,2,2,3,3,5,5,6,6],"right_children":[2,4,6,8,-1,10,12,-1,-1,-1,-1,-1,-1],"split_conditions":[3.75E1,3.7E1,3.85E1,3.6E1,-5.0448813E-2,3.8E1,3.9E1,-1.9577697E-2,4.030219E-2,6.429922E-2,2.9648444E-2,-1.0504695E-1,1.5998961E-3],"split_indices":[0,0,0,0,0,0,0,0,0,0,0,0,0],"split_type":[0,0,0,0,0,0,0,0,0,0,0,0,0],"sum_hessian":[4.247E3,3.72E2,3.875E3,2.67E2,1.05E2,1.78E2,3.697E3,1.74E2,9.3E1,9.6E1,8.2E1,8.9E1,3.608E3],"tree_param":{"num_deleted":"0","num_feature":"1","num_nodes":"13","size_leaf_vector":"1"}},{"base_weights":[6.0600076E-5,-8.6943203E-1,1.906207E-3,5.1831406E-1,-3.8176957E-1,3.8903323E-1,-3.931732E-3,-6.130085E-2,1.0934448E-1,-2.242696E-2,1.4653978E-1,-5.5153478E-2,5.8049837E-4],"categories":[],"categories_nodes":[],"categories_segments":[],"categories_sizes":[],"default_left":[0,0,0,0,0,0,0,0,0,0,0,0,0],"id":84,"left_children":[1,3,5,7,-1,9,11,-1,-1,-1,-1,-1,-1],"loss_changes":[6.818599E0,3.880174E1,9.584031E0,5.2249E0,0E0,4.1917305E1,2.227969E1,0E0,0E0,0E0,0E0,0E0,0E0],"parents":[2147483647,0,0,1,1,2,2,3,3,5,5,6,6],"right_children":[2,4,6,8,-1,10,12,-1,-1,-1,-1,-1,-1],"split_conditions":[3.2E1,3.15E1,3.45E1,3.1E1,-3.8176957E-1,3.4E1,3.55E1,-6.130085E-2,1.0934448E-1,-2.242696E-2,1.4653978E-1,-5.5153478E-2,5.8049837E-4],"split_indices":[0,0,0,0,0,0,0,0,0,0,0,0,0],"split_type":[0,0,0,0,0,0,0,0,0,0,0,0,0],"sum_hessian":[4.247E3,8E0,4.239E3,6E0,2E0,6.2E1,4.177E3,2E0,4E0,4E1,2.2E1,7.2E1,4.105E3],"tree_param":{"num_deleted":"0","num_feature":"1","num_nodes":"13","size_leaf_vector":"1"}},{"base_weights":[-7.0317765E-6,1.8503408E-1,-8.7839714E-4,-1.3846011E0,1.7326076E-3,-6.4543406E-3,-3.563183E-1,3.520991E-2,-3.550978E-4],"categories":[],"categories_nodes":[],"categories_segments":[],"categories_sizes":[],"default_left":[0,0,0,0,0,0,0,0,0],"id":85,"left_children":[1,-1,3,5,7,-1,-1,-1,-1],"loss_changes":[6.850799E0,0E0,1.5346413E1,2.277685E1,7.8503017E0,0E0,0E0,0E0,0E0],"parents":[2147483647,0,0,2,2,3,3,4,4],"right_children":[2,-1,4,6,8,-1,-1,-1,-1],"split_conditions":[3.05E1,1.8503408E-1,3.2E1,3.15E1,3.45E1,-6.4543406E-3,-3.563183E-1,3.520991E-2,-3.550978E-4],"split_indices":[0,0,0,0,0,0,0,0,0],"split_type":[0,0,0,0,0,0,0,0,0],"sum_hessian":[4.247E3,1E0,4.246E3,7E0,4.239E3,5E0,2E0,6.2E1,4.177E3],"tree_param":{"num_deleted":"0","num_feature":"1","num_nodes":"9","size_leaf_vector":"1"}},{"base_weights":[-4.0281517E-5,-9.020012E-4,1.8298416E-1,6.0010366E-3,-2.9019293E-1,-4.2112923E-4,1.1109246E-1,-6.483226E-2,1.3652876E-2],"categories":[],"categories_nodes":[],"categories_segments":[],"categories_sizes":[],"default_left":[0,0,0,0,0,0,0,0,0],"id":86,"left_children":[1,3,-1,5,7,-1,-1,-1,-1],"loss_changes":[6.700089E0,8.482942E0,0E0,4.6821342E1,1.5217865E1,0E0,0E0,0E0,0E0],"parents":[2147483647,0,0,1,1,3,3,4,4],"right_children":[2,4,-1,6,8,-1,-1,-1,-1],"split_conditions":[6.35E1,5.45E1,1.8298416E-1,5.4E1,5.6E1,-4.2112923E-4,1.1109246E-1,-6.483226E-2,1.3652876E-2],"split_indices":[0,0,0,0,0,0,0,0,0],"split_type":[0,0,0,0,0,0,0,0,0],"sum_hessian":[4.247E3,4.246E3,1E0,4.148E3,9.8E1,4.111E3,3.7E1,5.3E1,4.5E1],"tree_param":{"num_deleted":"0","num_feature":"1","num_nodes":"9","size_leaf_vector":"1"}},{"base_weights":[1.9357254E-5,2.0357471E-2,-7.5767845E-2,-1.4720235E-2,8.431267E-2,-8.307495E-2,5.640358E-2,1.149412E-3,-4.900799E-2,4.2363834E-2,-7.5874887E-3],"categories":[],"categories_nodes":[],"categories_segments":[],"categories_sizes":[],"default_left":[0,0,0,0,0,0,0,0,0,0,0],"id":87,"left_children":[1,3,5,7,-1,-1,9,-1,-1,-1,-1],"loss_changes":[6.549277E0,9.669628E1,8.975539E1,4.005608E1,0E0,0E0,3.724232E1,0E0,0E0,0E0,0E0],"parents":[2147483647,0,0,1,1,2,2,3,3,6,6],"right_children":[2,4,6,8,-1,-1,10,-1,-1,-1,-1],"split_conditions":[4.8E1,4.75E1,4.85E1,4.7E1,8.431267E-2,-8.307495E-2,4.95E1,1.149412E-3,-4.900799E-2,4.2363834E-2,-7.5874887E-3],"split_indices":[0,0,0,0,0,0,0,0,0,0,0],"split_type":[0,0,0,0,0,0,0,0,0,0,0],"sum_hessian":[4.247E3,3.349E3,8.98E2,3.213E3,1.36E2,1.33E2,7.65E2,3.046E3,1.67E2,2.02E2,5.63E2],"tree_param":{"num_deleted":"0","num_feature":"1","num_nodes":"11","size_leaf_vector":"1"}},{"base_weights":[1.5583864E-5,-1.4607783E-2,1.1324134E-1,1.0471613E-2,-1.1842656E-1,2.8578216E-1,-8.004663E-2,-5.4325775E-4,6.606171E-2,7.5488584E-3,1.6628404E-1,-1.680678E-1,1.5925182E-2],"categories":[],"categories_nodes":[],"categories_segments":[],"categories_sizes":[],"default_left":[0,0,0,0,0,0,0,0,0,0,0,0,0],"id":88,"left_children":[1,3,5,7,-1,9,11,-1,-1,-1,-1,-1,-1],"loss_changes":[7.0352454E0,1.10397415E2,1.6231007E1,3.810663E1,0E0,7.42982E1,8.8364235E1,0E0,0E0,0E0,0E0,0E0,0E0],"parents":[2147483647,0,0,1,1,2,2,3,3,5,5,6,6],"right_children":[2,4,6,8,-1,10,12,-1,-1,-1,-1,-1,-1],"split_conditions":[5E1,4.95E1,5.25E1,4.9E1,-1.1842656E-1,5.2E1,5.3E1,-5.4325775E-4,6.606171E-2,7.5488584E-3,1.6628404E-1,-1.680678E-1,1.5925182E-2],"split_indices":[0,0,0,0,0,0,0,0,0,0,0,0,0],"split_type":[0,0,0,0,0,0,0,0,0,0,0,0,0],"sum_hessian":[4.247E3,3.762E3,4.85E2,3.684E3,7.8E1,2.56E2,2.29E2,3.597E3,8.7E1,2.23E2,3.3E1,2.9E1,2E2],"tree_param":{"num_deleted":"0","num_feature":"1","num_nodes":"13","size_leaf_vector":"1"}},{"base_weights":[5.281129E-6,-2.6305942E-2,5.656758E-2,5.4308064E-2,-8.68966E-2,7.396101E-2,-2.758123E-2,-5.955196E-3,3.9208908E-2,-9.6759446E-2,-1.7418801E-4,-4.408257E-2,3.9522788E-3],"categories":[],"categories_nodes":[],"categories_segments":[],"categories_sizes":[],"default_left":[0,0,0,0,0,0,0,0,0,0,0,0,0],"id":89,"left_children":[1,3,5,7,9,-1,11,-1,-1,-1,-1,-1,-1],"loss_changes":[6.3234606E0,1.41696415E1,7.7557175E1,4.7905743E1,1.24190994E2,0E0,3.334932E1,0E0,0E0,0E0,0E0,0E0,0E0],"parents":[2147483647,0,0,1,1,2,2,3,3,4,4,6,6],"right_children":[2,4,6,8,10,-1,12,-1,-1,-1,-1,-1,-1],"split_conditions":[4.65E1,4.15E1,4.7E1,4.05E1,4.2E1,7.396101E-2,4.75E1,-5.955196E-3,3.9208908E-2,-9.6759446E-2,-1.7418801E-4,-4.408257E-2,3.9522788E-3],"split_indices":[0,0,0,0,0,0,0,0,0,0,0,0,0],"split_type":[0,0,0,0,0,0,0,0,0,0,0,0,0],"sum_hessian":[4.247E3,2.899E3,1.348E3,1.244E3,1.655E3,1.47E2,1.201E3,9.31E2,3.13E2,1.45E2,1.51E3,1.67E2,1.034E3],"tree_param":{"num_deleted":"0","num_feature":"1","num_nodes":"13","size_leaf_vector":"1"}},{"base_weights":[-1.6747671E-6,1.992575E-2,-7.4258484E-2,-1.1458246E-2,7.560443E-2,-7.51678E-2,4.4342645E-2,9.803124E-4,-3.970055E-2,3.4954645E-2,-6.5587694E-3],"categories":[],"categories_nodes":[],"categories_segments":[],"categories_sizes":[],"default_left":[0,0,0,0,0,0,0,0,0,0,0],"id":90,"left_children":[1,3,5,7,-1,-1,9,-1,-1,-1,-1],"loss_changes":[6.287445E0,7.7401505E1,7.226144E1,2.6349892E1,0E0,0E0,2.5723108E1,0E0,0E0,0E0,0E0],"parents":[2147483647,0,0,1,1,2,2,3,3,6,6],"right_children":[2,4,6,8,-1,-1,10,-1,-1,-1,-1],"split_conditions":[4.8E1,4.75E1,4.85E1,4.7E1,7.560443E-2,-7.51678E-2,4.95E1,9.803124E-4,-3.970055E-2,3.4954645E-2,-6.5587694E-3],"split_indices":[0,0,0,0,0,0,0,0,0,0,0],"split_type":[0,0,0,0,0,0,0,0,0,0,0],"sum_hessian":[4.247E3,3.349E3,8.98E2,3.213E3,1.36E2,1.33E2,7.65E2,3.046E3,1.67E2,2.02E2,5.63E2],"tree_param":{"num_deleted":"0","num_feature":"1","num_nodes":"11","size_leaf_vector":"1"}},{"base_weights":[-4.005971E-6,1.7602186E-1,-8.329302E-4,-2.7029315E-1,4.400396E-4,-3.7751935E-5,1.7354889E-1],"categories":[],"categories_nodes":[],"categories_segments":[],"categories_sizes":[],"default_left":[0,0,0,0,0,0,0],"id":91,"left_children":[1,-1,3,-1,5,-1,-1],"loss_changes":[6.1996856E0,0E0,1.4609551E1,0E0,6.0236263E0,0E0,0E0],"parents":[2147483647,0,0,2,2,4,4],"right_children":[2,-1,4,-1,6,-1,-1],"split_conditions":[3.05E1,1.7602186E-1,3.1E1,-2.7029315E-1,6.35E1,-3.7751935E-5,1.7354889E-1],"split_indices":[0,0,0,0,0,0,0],"split_type":[0,0,0,0,0,0,0],"sum_hessian":[4.247E3,1E0,4.246E3,1E0,4.245E3,4.244E3,1E0],"tree_param":{"num_deleted":"0","num_feature":"1","num_nodes":"7","size_leaf_vector":"1"}},{"base_weights":[1.5443327E-5,-1.3445698E-2,1.0424231E-1,9.095604E-3,-1.0647273E-1,1.907749E-1,-2.3168126E-1,-4.3046204E-4,5.5687863E-2,1.0267392E-2,9.97211E-2,-4.597513E-2,4.351239E-2],"categories":[],"categories_nodes":[],"categories_segments":[],"categories_sizes":[],"default_left":[0,0,0,0,0,0,0,0,0,0,0,0,0],"id":92,"left_children":[1,3,5,7,-1,9,11,-1,-1,-1,-1,-1,-1],"loss_changes":[5.961399E0,8.918246E1,1.41714115E1,2.7051826E1,0E0,2.7393116E1,1.5407875E1,0E0,0E0,0E0,0E0,0E0,0E0],"parents":[2147483647,0,0,1,1,2,2,3,3,5,5,6,6],"right_children":[2,4,6,8,-1,10,12,-1,-1,-1,-1,-1,-1],"split_conditions":[5E1,4.95E1,5.45E1,4.9E1,-1.0647273E-1,5.4E1,5.7E1,-4.3046204E-4,5.5687863E-2,1.0267392E-2,9.97211E-2,-4.597513E-2,4.351239E-2],"split_indices":[0,0,0,0,0,0,0,0,0,0,0,0,0],"split_type":[0,0,0,0,0,0,0,0,0,0,0,0,0],"sum_hessian":[4.247E3,3.762E3,4.85E2,3.684E3,7.8E1,3.86E2,9.9E1,3.597E3,8.7E1,3.49E2,3.7E1,7.4E1,2.5E1],"tree_param":{"num_deleted":"0","num_feature":"1","num_nodes":"13","size_leaf_vector":"1"}},{"base_weights":[2.7517814E-5,1.6724233E-1,-7.600544E-4,-2.56757E-1,4.4917298E-4,1.8987053E-3,-6.858894E-3],"categories":[],"categories_nodes":[],"categories_segments":[],"categories_sizes":[],"default_left":[0,0,0,0,0,0,0],"id":93,"left_children":[1,-1,3,-1,5,-1,-1],"loss_changes":[5.59645E0,0E0,1.3183231E1,0E0,5.4354186E0,0E0,0E0],"parents":[2147483647,0,0,2,2,4,4],"right_children":[2,-1,4,-1,6,-1,-1],"split_conditions":[3.05E1,1.6724233E-1,3.1E1,-2.56757E-1,4.8E1,1.8987053E-3,-6.858894E-3],"split_indices":[0,0,0,0,0,0,0],"split_type":[0,0,0,0,0,0,0],"sum_hessian":[4.247E3,1E0,4.246E3,1E0,4.245E3,3.347E3,8.98E2],"tree_param":{"num_deleted":"0","num_feature":"1","num_nodes":"7","size_leaf_vector":"1"}},{"base_weights":[1.720116E-6,-2.6041996E-2,5.5988953E-2,4.6645675E-2,-8.06737E-2,6.63756E-2,-1.8890835E-2,-5.581069E-3,3.5060328E-2,-8.738918E-2,-3.9758135E-4,-3.589642E-2,3.6327734E-3],"categories":[],"categories_nodes":[],"categories_segments":[],"categories_sizes":[],"default_left":[0,0,0,0,0,0,0,0,0,0,0,0,0],"id":94,"left_children":[1,3,5,7,9,-1,11,-1,-1,-1,-1,-1,-1],"loss_changes":[6.195533E0,1.1519814E1,6.1404804E1,3.879184E1,1.00744514E2,0E0,2.2584637E1,0E0,0E0,0E0,0E0,0E0,0E0],"parents":[2147483647,0,0,1,1,2,2,3,3,4,4,6,6],"right_children":[2,4,6,8,10,-1,12,-1,-1,-1,-1,-1,-1],"split_conditions":[4.65E1,4.15E1,4.7E1,4.05E1,4.2E1,6.63756E-2,4.75E1,-5.581069E-3,3.5060328E-2,-8.738918E-2,-3.9758135E-4,-3.589642E-2,3.6327734E-3],"split_indices":[0,0,0,0,0,0,0,0,0,0,0,0,0],"split_type":[0,0,0,0,0,0,0,0,0,0,0,0,0],"sum_hessian":[4.247E3,2.899E3,1.348E3,1.244E3,1.655E3,1.47E2,1.201E3,9.31E2,3.13E2,1.45E2,1.51E3,1.67E2,1.034E3],"tree_param":{"num_deleted":"0","num_feature":"1","num_nodes":"13","size_leaf_vector":"1"}},{"base_weights":[-4.1914077E-6,-7.711217E-4,1.6285744E-1,1.0416475E-3,-1.0989401E0,-1.6916399E-4,1.6545318E-1,-2.9759878E-1,2.4707643E-2],"categories":[],"categories_nodes":[],"categories_segments":[],"categories_sizes":[],"default_left":[0,0,0,0,0,0,0,0,0],"id":95,"left_children":[1,3,-1,5,7,-1,-1,-1,-1],"loss_changes":[5.3070345E0,8.455763E0,0E0,1.9169844E1,1.8421055E1,0E0,0E0,0E0,0E0],"parents":[2147483647,0,0,1,1,3,3,4,4],"right_children":[2,4,-1,6,8,-1,-1,-1,-1],"split_conditions":[6.35E1,5.85E1,1.6285744E-1,5.75E1,5.9E1,-1.6916399E-4,1.6545318E-1,-2.9759878E-1,2.4707643E-2],"split_indices":[0,0,0,0,0,0,0,0,0],"split_type":[0,0,0,0,0,0,0,0,0],"sum_hessian":[4.247E3,4.246E3,1E0,4.24E3,6E0,4.234E3,6E0,2E0,4E0],"tree_param":{"num_deleted":"0","num_feature":"1","num_nodes":"9","size_leaf_vector":"1"}},{"base_weights":[7.933367E-6,-3.244479E-1,3.7932496E-3,1.5916777E-1,-3.9752713E-1,1.3002585E-1,-3.3447335E-3,-2.4363156E-1,-3.0231217E-2,-7.094496E-2,2.9636256E-4],"categories":[],"categories_nodes":[],"categories_segments":[],"categories_sizes":[],"default_left":[0,0,0,0,0,0,0,0,0,0,0],"id":96,"left_children":[1,3,5,-1,7,-1,9,-1,-1,-1,-1],"loss_changes":[5.218488E0,7.4941545E0,3.887177E1,0E0,8.581387E0,0E0,1.861243E1,0E0,0E0,0E0,0E0],"parents":[2147483647,0,0,1,1,2,2,4,4,6,6],"right_children":[2,4,6,-1,8,-1,10,-1,-1,-1,-1],"split_conditions":[3.4E1,3.05E1,3.45E1,1.5916777E-1,3.1E1,1.3002585E-1,3.5E1,-2.4363156E-1,-3.0231217E-2,-7.094496E-2,2.9636256E-4],"split_indices":[0,0,0,0,0,0,0,0,0,0,0],"split_type":[0,0,0,0,0,0,0,0,0,0,0],"sum_hessian":[4.247E3,4.8E1,4.199E3,1E0,4.7E1,2.2E1,4.177E3,1E0,4.6E1,3.6E1,4.141E3],"tree_param":{"num_deleted":"0","num_feature":"1","num_nodes":"11","size_leaf_vector":"1"}},{"base_weights":[-7.0169594E-6,-1.2376619E-2,9.5768325E-2,7.868065E-3,-9.565447E-2,2.5336972E-1,-8.075047E-2,-4.2902242E-4,5.0488688E-2,6.3465172E-3,1.4970535E-1,-1.5225895E-1,1.3485113E-2],"categories":[],"categories_nodes":[],"categories_segments":[],"categories_sizes":[],"default_left":[0,0,0,0,0,0,0,0,0,0,0,0,0],"id":97,"left_children":[1,3,5,7,-1,9,11,-1,-1,-1,-1,-1,-1],"loss_changes":[5.0338035E0,7.193496E1,1.3540789E1,2.2270245E1,0E0,6.060356E1,7.1703766E1,0E0,0E0,0E0,0E0,0E0,0E0],"parents":[2147483647,0,0,1,1,2,2,3,3,5,5,6,6],"right_children":[2,4,6,8,-1,10,12,-1,-1,-1,-1,-1,-1],"split_conditions":[5E1,4.95E1,5.25E1,4.9E1,-9.565447E-2,5.2E1,5.3E1,-4.2902242E-4,5.0488688E-2,6.3465172E-3,1.4970535E-1,-1.5225895E-1,1.3485113E-2],"split_indices":[0,0,0,0,0,0,0,0,0,0,0,0,0],"split_type":[0,0,0,0,0,0,0,0,0,0,0,0,0],"sum_hessian":[4.247E3,3.762E3,4.85E2,3.684E3,7.8E1,2.56E2,2.29E2,3.597E3,8.7E1,2.23E2,3.3E1,2.9E1,2E2],"tree_param":{"num_deleted":"0","num_feature":"1","num_nodes":"13","size_leaf_vector":"1"}},{"base_weights":[-1.451345E-5,4.9939733E-3,-2.6101908E-1,-5.023212E-3,4.642652E-1,-1.0972198E-1,5.5208627E-2,4.1782638E-4,-5.919392E-2,6.2292274E-2,-7.914589E-3,3.0483378E-4,1.5402527E-1],"categories":[],"categories_nodes":[],"categories_segments":[],"categories_sizes":[],"default_left":[0,0,0,0,0,0,0,0,0,0,0,0,0],"id":98,"left_children":[1,3,5,7,9,-1,11,-1,-1,-1,-1,-1,-1],"loss_changes":[5.55445E0,1.9182255E1,2.1214964E1,2.204189E1,7.7225475E0,0E0,4.565464E0,0E0,0E0,0E0,0E0,0E0,0E0],"parents":[2147483647,0,0,1,1,2,2,3,3,4,4,6,6],"right_children":[2,4,6,8,10,-1,12,-1,-1,-1,-1,-1,-1],"split_conditions":[5.5E1,5.35E1,5.55E1,5.25E1,5.45E1,-1.0972198E-1,6.35E1,4.1782638E-4,-5.919392E-2,6.2292274E-2,-7.914589E-3,3.0483378E-4,1.5402527E-1],"split_indices":[0,0,0,0,0,0,0,0,0,0,0,0,0],"split_type":[0,0,0,0,0,0,0,0,0,0,0,0,0],"sum_hessian":[4.247E3,4.168E3,7.9E1,4.08E3,8.8E1,2.1E1,5.8E1,4.018E3,6.2E1,6.8E1,2E1,5.7E1,1E0],"tree_param":{"num_deleted":"0","num_feature":"1","num_nodes":"13","size_leaf_vector":"1"}},{"base_weights":[-5.3269264E-6,1.7772257E-2,-6.625105E-2,-1.0284345E-2,6.758463E-2,-6.735226E-2,4.0068325E-2,6.9832E-4,-3.2340296E-2,2.7245013E-2,-4.364368E-3],"categories":[],"categories_nodes":[],"categories_segments":[],"categories_sizes":[],"default_left":[0,0,0,0,0,0,0,0,0,0,0],"id":99,"left_children":[1,3,5,7,-1,-1,9,-1,-1,-1,-1],"loss_changes":[5.003999E0,6.1859077E1,5.8070675E1,1.7379677E1,0E0,0E0,1.4913001E1,0E0,0E0,0E0,0E0],"parents":[2147483647,0,0,1,1,2,2,3,3,6,6],"right_children":[2,4,6,8,-1,-1,10,-1,-1,-1,-1],"split_conditions":[4.8E1,4.75E1,4.85E1,4.7E1,6.758463E-2,-6.735226E-2,4.95E1,6.9832E-4,-3.2340296E-2,2.7245013E-2,-4.364368E-3],"split_indices":[0,0,0,0,0,0,0,0,0,0,0],"split_type":[0,0,0,0,0,0,0,0,0,0,0],"sum_hessian":[4.247E3,3.349E3,8.98E2,3.213E3,1.36E2,1.33E2,7.65E2,3.046E3,1.67E2,2.02E2,5.63E2],"tree_param":{"num_deleted":"0","num_feature":"1","num_nodes":"11","size_leaf_vector":"1"}}]},"name":"gbtree"},"learner_model_param":{"base_score":"4.4623264E1","boost_from_average":"1","num_class":"0","num_feature":"1","num_target":"1"},"objective":{"name":"reg:squarederror","reg_loss_param":{"scale_pos_weight":"1"}}},"version":[2,0,1]}